{\rtf1\ansi\ansicpg1252\cocoartf1504\cocoasubrtf820
{\fonttbl\f0\fswiss\fcharset0 Helvetica;}
{\colortbl;\red255\green255\blue255;}
{\*\expandedcolortbl;;}
\paperw11900\paperh16840\margl1440\margr1440\vieww10800\viewh8400\viewkind0
\pard\tx566\tx1133\tx1700\tx2267\tx2834\tx3401\tx3968\tx4535\tx5102\tx5669\tx6236\tx6803\pardirnatural\partightenfactor0

\f0\fs24 \cf0 === Run information ===\
\
Scheme:       weka.classifiers.trees.J48 -C 4.5 -M 2\
Relation:     train_test_data4\
Instances:    21684\
Attributes:   35\
              p1\
               p2\
               p3\
               p4\
               p5\
               p6\
               p7\
               p8\
               p9\
               p10\
               p11\
               p12\
               p13\
               p14\
               p15\
               p16\
               p17\
               p18\
               p19\
               p20\
               p21\
               p22\
               p23\
               p24\
               p25\
               p26\
               p27\
               p28\
               p29\
               p30\
               p31\
               p32\
               p33\
               p34\
               label \
Test mode:    10-fold cross-validation\
\
=== Classifier model (full training set) ===\
\
J48 pruned tree\
------------------\
\
 p20 <= 0.032967\
|    p21 <= 0.03022\
|   |    p34 <= 0.003571: zero  (1415.0)\
|   |    p34 > 0.003571\
|   |   |    p8 <= 0.084821\
|   |   |   |    p33 <= 0.114286\
|   |   |   |   |    p21 <= 0.024725: zero  (197.0)\
|   |   |   |   |    p21 > 0.024725\
|   |   |   |   |   |    p26 <= 0.087798\
|   |   |   |   |   |   |    p4 <= 0.017857\
|   |   |   |   |   |   |   |    p6 <= 0.053571: one  (4.0/1.0)\
|   |   |   |   |   |   |   |    p6 > 0.053571\
|   |   |   |   |   |   |   |   |    p34 <= 0.0125: zero  (23.0)\
|   |   |   |   |   |   |   |   |    p34 > 0.0125\
|   |   |   |   |   |   |   |   |   |    p28 <= 0.087662\
|   |   |   |   |   |   |   |   |   |   |    p16 <= 0.048214: zero  (4.0)\
|   |   |   |   |   |   |   |   |   |   |    p16 > 0.048214\
|   |   |   |   |   |   |   |   |   |   |   |    p34 <= 0.026786: one  (5.0)\
|   |   |   |   |   |   |   |   |   |   |   |    p34 > 0.026786: zero  (4.0)\
|   |   |   |   |   |   |   |   |   |    p28 > 0.087662: zero  (10.0)\
|   |   |   |   |   |   |    p4 > 0.017857\
|   |   |   |   |   |   |   |    p16 <= 0.117857\
|   |   |   |   |   |   |   |   |    p32 <= 0.096429\
|   |   |   |   |   |   |   |   |   |    p22 <= 0.052198: zero  (68.0)\
|   |   |   |   |   |   |   |   |   |    p22 > 0.052198\
|   |   |   |   |   |   |   |   |   |   |    p25 <= 0.053571: zero  (23.0)\
|   |   |   |   |   |   |   |   |   |   |    p25 > 0.053571\
|   |   |   |   |   |   |   |   |   |   |   |    p32 <= 0.085714\
|   |   |   |   |   |   |   |   |   |   |   |   |    p4 <= 0.023352: zero  (8.0)\
|   |   |   |   |   |   |   |   |   |   |   |   |    p4 > 0.023352\
|   |   |   |   |   |   |   |   |   |   |   |   |   |    p24 <= 0.059524\
|   |   |   |   |   |   |   |   |   |   |   |   |   |   |    p32 <= 0.078571: one  (2.0)\
|   |   |   |   |   |   |   |   |   |   |   |   |   |   |    p32 > 0.078571\
|   |   |   |   |   |   |   |   |   |   |   |   |   |   |   |    p6 <= 0.063187: zero  (6.0)\
|   |   |   |   |   |   |   |   |   |   |   |   |   |   |   |    p6 > 0.063187: one  (3.0/1.0)\
|   |   |   |   |   |   |   |   |   |   |   |   |   |    p24 > 0.059524: one  (2.0)\
|   |   |   |   |   |   |   |   |   |   |   |    p32 > 0.085714: zero  (82.0/7.0)\
|   |   |   |   |   |   |   |   |    p32 > 0.096429\
|   |   |   |   |   |   |   |   |   |    p18 <= 0.066071: zero  (445.0/2.0)\
|   |   |   |   |   |   |   |   |   |    p18 > 0.066071\
|   |   |   |   |   |   |   |   |   |   |    p28 <= 0.090909: one  (2.0)\
|   |   |   |   |   |   |   |   |   |   |    p28 > 0.090909: zero  (22.0/1.0)\
|   |   |   |   |   |   |   |    p16 > 0.117857\
|   |   |   |   |   |   |   |   |    p30 <= 0.045455\
|   |   |   |   |   |   |   |   |   |    p34 <= 0.0375\
|   |   |   |   |   |   |   |   |   |   |    p30 <= 0.035714\
|   |   |   |   |   |   |   |   |   |   |   |    p3 <= 0.853022: zero  (2.0)\
|   |   |   |   |   |   |   |   |   |   |   |    p3 > 0.853022: one  (2.0)\
|   |   |   |   |   |   |   |   |   |   |    p30 > 0.035714: zero  (10.0)\
|   |   |   |   |   |   |   |   |   |    p34 > 0.0375: one  (8.0/1.0)\
|   |   |   |   |   |   |   |   |    p30 > 0.045455: zero  (89.0/2.0)\
|   |   |   |   |   |    p26 > 0.087798\
|   |   |   |   |   |   |    p12 <= 0.108766\
|   |   |   |   |   |   |   |    p13 <= 0.108766\
|   |   |   |   |   |   |   |   |    p33 <= 0.098214\
|   |   |   |   |   |   |   |   |   |    p7 <= 0.787202\
|   |   |   |   |   |   |   |   |   |   |    p24 <= 0.056548\
|   |   |   |   |   |   |   |   |   |   |   |    p28 <= 0.086039: one  (4.0)\
|   |   |   |   |   |   |   |   |   |   |   |    p28 > 0.086039: zero  (2.0)\
|   |   |   |   |   |   |   |   |   |   |    p24 > 0.056548: one  (14.0)\
|   |   |   |   |   |   |   |   |   |    p7 > 0.787202: zero  (4.0)\
|   |   |   |   |   |   |   |   |    p33 > 0.098214\
|   |   |   |   |   |   |   |   |   |    p20 <= 0.026099: one  (4.0/1.0)\
|   |   |   |   |   |   |   |   |   |    p20 > 0.026099\
|   |   |   |   |   |   |   |   |   |   |    p4 <= 0.034341\
|   |   |   |   |   |   |   |   |   |   |   |    p13 <= 0.069805: one  (4.0/1.0)\
|   |   |   |   |   |   |   |   |   |   |   |    p13 > 0.069805\
|   |   |   |   |   |   |   |   |   |   |   |   |    p28 <= 0.102273: zero  (29.0)\
|   |   |   |   |   |   |   |   |   |   |   |   |    p28 > 0.102273: one  (3.0/1.0)\
|   |   |   |   |   |   |   |   |   |   |    p4 > 0.034341\
|   |   |   |   |   |   |   |   |   |   |   |    p16 <= 0.132143: zero  (4.0/1.0)\
|   |   |   |   |   |   |   |   |   |   |   |    p16 > 0.132143: one  (4.0)\
|   |   |   |   |   |   |   |    p13 > 0.108766: zero  (16.0)\
|   |   |   |   |   |   |    p12 > 0.108766\
|   |   |   |   |   |   |   |    p29 <= 0.087662: zero  (59.0)\
|   |   |   |   |   |   |   |    p29 > 0.087662\
|   |   |   |   |   |   |   |   |    p28 <= 0.089286: one  (3.0/1.0)\
|   |   |   |   |   |   |   |   |    p28 > 0.089286: zero  (34.0/2.0)\
|   |   |   |    p33 > 0.114286\
|   |   |   |   |    p21 <= 0.028846\
|   |   |   |   |   |    p34 <= 0.05: zero  (513.0)\
|   |   |   |   |   |    p34 > 0.05\
|   |   |   |   |   |   |    p4 <= 0.019231\
|   |   |   |   |   |   |   |    p33 <= 0.125: one  (3.0)\
|   |   |   |   |   |   |   |    p33 > 0.125: zero  (33.0/1.0)\
|   |   |   |   |   |   |    p4 > 0.019231\
|   |   |   |   |   |   |   |    p25 <= 0.061012: zero  (198.0)\
|   |   |   |   |   |   |   |    p25 > 0.061012\
|   |   |   |   |   |   |   |   |    p28 <= 0.097403\
|   |   |   |   |   |   |   |   |   |    p17 <= 0.126786: zero  (13.0)\
|   |   |   |   |   |   |   |   |   |    p17 > 0.126786: one  (2.0)\
|   |   |   |   |   |   |   |   |    p28 > 0.097403: zero  (83.0)\
|   |   |   |   |    p21 > 0.028846\
|   |   |   |   |   |    p8 <= 0.041667\
|   |   |   |   |   |   |    p4 <= 0.019231\
|   |   |   |   |   |   |   |    p11 <= 0.806818: one  (3.0)\
|   |   |   |   |   |   |   |    p11 > 0.806818\
|   |   |   |   |   |   |   |   |    p24 <= 0.0625\
|   |   |   |   |   |   |   |   |   |    p32 <= 0.119643: one  (3.0/1.0)\
|   |   |   |   |   |   |   |   |   |    p32 > 0.119643: zero  (3.0)\
|   |   |   |   |   |   |   |   |    p24 > 0.0625: zero  (4.0)\
|   |   |   |   |   |   |    p4 > 0.019231: zero  (5.0)\
|   |   |   |   |   |    p8 > 0.041667: zero  (340.0/7.0)\
|   |   |    p8 > 0.084821: zero  (1012.0)\
|    p21 > 0.03022\
|   |    p12 <= 0.112013\
|   |   |    p9 <= 0.041667\
|   |   |   |    p8 <= 0.043155\
|   |   |   |   |    p17 <= 0.033929: zero  (11.0/1.0)\
|   |   |   |   |    p17 > 0.033929\
|   |   |   |   |   |    p20 <= 0.031593: one  (60.0/28.0)\
|   |   |   |   |   |    p20 > 0.031593\
|   |   |   |   |   |   |    p4 <= 0.019231\
|   |   |   |   |   |   |   |    p4 <= 0.01511: one  (3.0)\
|   |   |   |   |   |   |   |    p4 > 0.01511\
|   |   |   |   |   |   |   |   |    p15 <= 0.844643\
|   |   |   |   |   |   |   |   |   |    p16 <= 0.078571\
|   |   |   |   |   |   |   |   |   |   |    p13 <= 0.055195\
|   |   |   |   |   |   |   |   |   |   |   |    p26 <= 0.03125: zero  (4.0)\
|   |   |   |   |   |   |   |   |   |   |   |    p26 > 0.03125\
|   |   |   |   |   |   |   |   |   |   |   |   |    p28 <= 0.099026: one  (10.0/1.0)\
|   |   |   |   |   |   |   |   |   |   |   |   |    p28 > 0.099026: zero  (2.0)\
|   |   |   |   |   |   |   |   |   |   |    p13 > 0.055195: zero  (9.0)\
|   |   |   |   |   |   |   |   |   |    p16 > 0.078571: one  (5.0)\
|   |   |   |   |   |   |   |   |    p15 > 0.844643: one  (6.0)\
|   |   |   |   |   |   |    p4 > 0.019231: one  (10.0/1.0)\
|   |   |   |    p8 > 0.043155: zero  (9.0)\
|   |   |    p9 > 0.041667\
|   |   |   |    p33 <= 0.1\
|   |   |   |   |    p10 <= 0.092262\
|   |   |   |   |   |    p29 <= 0.086039\
|   |   |   |   |   |   |    p21 <= 0.031593: zero  (68.0/9.0)\
|   |   |   |   |   |   |    p21 > 0.031593\
|   |   |   |   |   |   |   |    p34 <= 0.035714\
|   |   |   |   |   |   |   |   |    p32 <= 0.091071\
|   |   |   |   |   |   |   |   |   |    p11 <= 0.824675: one  (5.0)\
|   |   |   |   |   |   |   |   |   |    p11 > 0.824675\
|   |   |   |   |   |   |   |   |   |   |    p18 <= 0.025: zero  (14.0/2.0)\
|   |   |   |   |   |   |   |   |   |   |    p18 > 0.025: one  (2.0)\
|   |   |   |   |   |   |   |   |    p32 > 0.091071\
|   |   |   |   |   |   |   |   |   |    p9 <= 0.049107\
|   |   |   |   |   |   |   |   |   |   |    p14 <= 0.040584: zero  (4.0)\
|   |   |   |   |   |   |   |   |   |   |    p14 > 0.040584: one  (2.0)\
|   |   |   |   |   |   |   |   |   |    p9 > 0.049107: zero  (33.0)\
|   |   |   |   |   |   |   |    p34 > 0.035714\
|   |   |   |   |   |   |   |   |    p34 <= 0.041071: one  (5.0)\
|   |   |   |   |   |   |   |   |    p34 > 0.041071\
|   |   |   |   |   |   |   |   |   |    p13 <= 0.094156: zero  (4.0/1.0)\
|   |   |   |   |   |   |   |   |   |    p13 > 0.094156: one  (3.0)\
|   |   |   |   |   |    p29 > 0.086039\
|   |   |   |   |   |   |    p16 <= 0.105357\
|   |   |   |   |   |   |   |    p20 <= 0.031593\
|   |   |   |   |   |   |   |   |    p30 <= 0.043831: zero  (15.0/1.0)\
|   |   |   |   |   |   |   |   |    p30 > 0.043831: one  (2.0)\
|   |   |   |   |   |   |   |    p20 > 0.031593\
|   |   |   |   |   |   |   |   |    p33 <= 0.098214\
|   |   |   |   |   |   |   |   |   |    p9 <= 0.052083\
|   |   |   |   |   |   |   |   |   |   |    p16 <= 0.082143: zero  (7.0/1.0)\
|   |   |   |   |   |   |   |   |   |   |    p16 > 0.082143: one  (2.0)\
|   |   |   |   |   |   |   |   |   |    p9 > 0.052083: zero  (5.0)\
|   |   |   |   |   |   |   |   |    p33 > 0.098214: one  (6.0/1.0)\
|   |   |   |   |   |   |    p16 > 0.105357\
|   |   |   |   |   |   |   |    p17 <= 0.132143: one  (41.0/4.0)\
|   |   |   |   |   |   |   |    p17 > 0.132143: zero  (3.0)\
|   |   |   |   |    p10 > 0.092262: one  (17.0)\
|   |   |   |    p33 > 0.1\
|   |   |   |   |    p10 <= 0.044643: zero  (76.0)\
|   |   |   |   |    p10 > 0.044643\
|   |   |   |   |   |    p33 <= 0.130357\
|   |   |   |   |   |   |    p14 <= 0.069805\
|   |   |   |   |   |   |   |    p15 <= 0.717857\
|   |   |   |   |   |   |   |   |    p27 <= 0.732143: zero  (19.0/1.0)\
|   |   |   |   |   |   |   |   |    p27 > 0.732143\
|   |   |   |   |   |   |   |   |   |    p13 <= 0.112013\
|   |   |   |   |   |   |   |   |   |   |    p33 <= 0.107143: zero  (3.0)\
|   |   |   |   |   |   |   |   |   |   |    p33 > 0.107143: one  (12.0/1.0)\
|   |   |   |   |   |   |   |   |   |    p13 > 0.112013: zero  (3.0)\
|   |   |   |   |   |   |   |    p15 > 0.717857\
|   |   |   |   |   |   |   |   |    p27 <= 0.746753: zero  (66.0)\
|   |   |   |   |   |   |   |   |    p27 > 0.746753\
|   |   |   |   |   |   |   |   |   |    p32 <= 0.103571\
|   |   |   |   |   |   |   |   |   |   |    p24 <= 0.068452\
|   |   |   |   |   |   |   |   |   |   |   |    p29 <= 0.084416: one  (4.0/1.0)\
|   |   |   |   |   |   |   |   |   |   |   |    p29 > 0.084416: zero  (7.0)\
|   |   |   |   |   |   |   |   |   |   |    p24 > 0.068452: one  (5.0/1.0)\
|   |   |   |   |   |   |   |   |   |    p32 > 0.103571\
|   |   |   |   |   |   |   |   |   |   |    p10 <= 0.072917\
|   |   |   |   |   |   |   |   |   |   |   |    p32 <= 0.114286\
|   |   |   |   |   |   |   |   |   |   |   |   |    p29 <= 0.097403\
|   |   |   |   |   |   |   |   |   |   |   |   |   |    p30 <= 0.055195\
|   |   |   |   |   |   |   |   |   |   |   |   |   |   |    p24 <= 0.066964: zero  (33.0)\
|   |   |   |   |   |   |   |   |   |   |   |   |   |   |    p24 > 0.066964\
|   |   |   |   |   |   |   |   |   |   |   |   |   |   |   |    p10 <= 0.0625: zero  (29.0/1.0)\
|   |   |   |   |   |   |   |   |   |   |   |   |   |   |   |    p10 > 0.0625\
|   |   |   |   |   |   |   |   |   |   |   |   |   |   |   |   |    p28 <= 0.092532: one  (3.0/1.0)\
|   |   |   |   |   |   |   |   |   |   |   |   |   |   |   |   |    p28 > 0.092532: zero  (6.0)\
|   |   |   |   |   |   |   |   |   |   |   |   |   |    p30 > 0.055195\
|   |   |   |   |   |   |   |   |   |   |   |   |   |   |    p3 <= 0.840659: zero  (2.0)\
|   |   |   |   |   |   |   |   |   |   |   |   |   |   |    p3 > 0.840659: one  (2.0)\
|   |   |   |   |   |   |   |   |   |   |   |   |    p29 > 0.097403\
|   |   |   |   |   |   |   |   |   |   |   |   |   |    p4 <= 0.03022\
|   |   |   |   |   |   |   |   |   |   |   |   |   |   |    p4 <= 0.027473: one  (3.0/1.0)\
|   |   |   |   |   |   |   |   |   |   |   |   |   |   |    p4 > 0.027473: zero  (5.0)\
|   |   |   |   |   |   |   |   |   |   |   |   |   |    p4 > 0.03022: one  (4.0)\
|   |   |   |   |   |   |   |   |   |   |   |    p32 > 0.114286: zero  (108.0/2.0)\
|   |   |   |   |   |   |   |   |   |   |    p10 > 0.072917\
|   |   |   |   |   |   |   |   |   |   |   |    p12 <= 0.076299: zero  (21.0/1.0)\
|   |   |   |   |   |   |   |   |   |   |   |    p12 > 0.076299\
|   |   |   |   |   |   |   |   |   |   |   |   |    p20 <= 0.031593\
|   |   |   |   |   |   |   |   |   |   |   |   |   |    p23 <= 0.797619: zero  (4.0)\
|   |   |   |   |   |   |   |   |   |   |   |   |   |    p23 > 0.797619\
|   |   |   |   |   |   |   |   |   |   |   |   |   |   |    p29 <= 0.100649: one  (2.0)\
|   |   |   |   |   |   |   |   |   |   |   |   |   |   |    p29 > 0.100649: zero  (3.0)\
|   |   |   |   |   |   |   |   |   |   |   |   |    p20 > 0.031593\
|   |   |   |   |   |   |   |   |   |   |   |   |   |    p27 <= 0.75487: one  (8.0)\
|   |   |   |   |   |   |   |   |   |   |   |   |   |    p27 > 0.75487: zero  (4.0/1.0)\
|   |   |   |   |   |   |    p14 > 0.069805\
|   |   |   |   |   |   |   |    p13 <= 0.11039\
|   |   |   |   |   |   |   |   |    p33 <= 0.126786\
|   |   |   |   |   |   |   |   |   |    p34 <= 0.119643\
|   |   |   |   |   |   |   |   |   |   |    p20 <= 0.031593\
|   |   |   |   |   |   |   |   |   |   |   |    p13 <= 0.099026\
|   |   |   |   |   |   |   |   |   |   |   |   |    p12 <= 0.092532\
|   |   |   |   |   |   |   |   |   |   |   |   |   |    p25 <= 0.059524: zero  (2.0)\
|   |   |   |   |   |   |   |   |   |   |   |   |   |    p25 > 0.059524\
|   |   |   |   |   |   |   |   |   |   |   |   |   |   |    p4 <= 0.031593: one  (27.0/7.0)\
|   |   |   |   |   |   |   |   |   |   |   |   |   |   |    p4 > 0.031593: zero  (2.0)\
|   |   |   |   |   |   |   |   |   |   |   |   |    p12 > 0.092532: zero  (8.0)\
|   |   |   |   |   |   |   |   |   |   |   |    p13 > 0.099026: one  (7.0)\
|   |   |   |   |   |   |   |   |   |   |    p20 > 0.031593\
|   |   |   |   |   |   |   |   |   |   |   |    p25 <= 0.065476: zero  (4.0)\
|   |   |   |   |   |   |   |   |   |   |   |    p25 > 0.065476\
|   |   |   |   |   |   |   |   |   |   |   |   |    p16 <= 0.128571\
|   |   |   |   |   |   |   |   |   |   |   |   |   |    p4 <= 0.024725\
|   |   |   |   |   |   |   |   |   |   |   |   |   |   |    p16 <= 0.071429: zero  (3.0)\
|   |   |   |   |   |   |   |   |   |   |   |   |   |   |    p16 > 0.071429\
|   |   |   |   |   |   |   |   |   |   |   |   |   |   |   |    p9 <= 0.043155: zero  (2.0)\
|   |   |   |   |   |   |   |   |   |   |   |   |   |   |   |    p9 > 0.043155\
|   |   |   |   |   |   |   |   |   |   |   |   |   |   |   |   |    p28 <= 0.105519: one  (11.0)\
|   |   |   |   |   |   |   |   |   |   |   |   |   |   |   |   |    p28 > 0.105519\
|   |   |   |   |   |   |   |   |   |   |   |   |   |   |   |   |   |    p28 <= 0.107143\
|   |   |   |   |   |   |   |   |   |   |   |   |   |   |   |   |   |   |    p7 <= 0.808036: zero  (2.0)\
|   |   |   |   |   |   |   |   |   |   |   |   |   |   |   |   |   |   |    p7 > 0.808036: one  (2.0)\
|   |   |   |   |   |   |   |   |   |   |   |   |   |   |   |   |   |    p28 > 0.107143: one  (3.0)\
|   |   |   |   |   |   |   |   |   |   |   |   |   |    p4 > 0.024725\
|   |   |   |   |   |   |   |   |   |   |   |   |   |   |    p18 <= 0.094643\
|   |   |   |   |   |   |   |   |   |   |   |   |   |   |   |    p33 <= 0.117857: one  (7.0/1.0)\
|   |   |   |   |   |   |   |   |   |   |   |   |   |   |   |    p33 > 0.117857\
|   |   |   |   |   |   |   |   |   |   |   |   |   |   |   |   |    p33 <= 0.123214: zero  (9.0)\
|   |   |   |   |   |   |   |   |   |   |   |   |   |   |   |   |    p33 > 0.123214\
|   |   |   |   |   |   |   |   |   |   |   |   |   |   |   |   |   |    p24 <= 0.068452: zero  (3.0/1.0)\
|   |   |   |   |   |   |   |   |   |   |   |   |   |   |   |   |   |    p24 > 0.068452: one  (3.0)\
|   |   |   |   |   |   |   |   |   |   |   |   |   |   |    p18 > 0.094643: zero  (6.0)\
|   |   |   |   |   |   |   |   |   |   |   |   |    p16 > 0.128571: one  (8.0)\
|   |   |   |   |   |   |   |   |   |    p34 > 0.119643\
|   |   |   |   |   |   |   |   |   |   |    p33 <= 0.121429: zero  (13.0)\
|   |   |   |   |   |   |   |   |   |   |    p33 > 0.121429: one  (3.0/1.0)\
|   |   |   |   |   |   |   |   |    p33 > 0.126786\
|   |   |   |   |   |   |   |   |   |    p10 <= 0.11756\
|   |   |   |   |   |   |   |   |   |   |    p20 <= 0.031593: zero  (11.0)\
|   |   |   |   |   |   |   |   |   |   |    p20 > 0.031593\
|   |   |   |   |   |   |   |   |   |   |   |    p32 <= 0.132143\
|   |   |   |   |   |   |   |   |   |   |   |   |    p16 <= 0.1: zero  (9.0)\
|   |   |   |   |   |   |   |   |   |   |   |   |    p16 > 0.1\
|   |   |   |   |   |   |   |   |   |   |   |   |   |   p1 <= 0.866071: zero  (3.0)\
|   |   |   |   |   |   |   |   |   |   |   |   |   |   p1 > 0.866071: one  (2.0)\
|   |   |   |   |   |   |   |   |   |   |   |    p32 > 0.132143: one  (3.0)\
|   |   |   |   |   |   |   |   |   |    p10 > 0.11756: one  (3.0)\
|   |   |   |   |   |   |   |    p13 > 0.11039: zero  (9.0)\
|   |   |   |   |   |    p33 > 0.130357\
|   |   |   |   |   |   |    p20 <= 0.031593: zero  (116.0/1.0)\
|   |   |   |   |   |   |    p20 > 0.031593\
|   |   |   |   |   |   |   |    p4 <= 0.026099\
|   |   |   |   |   |   |   |   |    p16 <= 0.108929\
|   |   |   |   |   |   |   |   |   |    p16 <= 0.1\
|   |   |   |   |   |   |   |   |   |   |    p28 <= 0.103896: one  (2.0)\
|   |   |   |   |   |   |   |   |   |   |    p28 > 0.103896\
|   |   |   |   |   |   |   |   |   |   |   |    p18 <= 0.083929: one  (3.0/1.0)\
|   |   |   |   |   |   |   |   |   |   |   |    p18 > 0.083929: zero  (14.0)\
|   |   |   |   |   |   |   |   |   |    p16 > 0.1: one  (6.0/1.0)\
|   |   |   |   |   |   |   |   |    p16 > 0.108929: zero  (10.0)\
|   |   |   |   |   |   |   |    p4 > 0.026099\
|   |   |   |   |   |   |   |   |    p33 <= 0.142857\
|   |   |   |   |   |   |   |   |   |    p32 <= 0.146429\
|   |   |   |   |   |   |   |   |   |   |    p12 <= 0.090909\
|   |   |   |   |   |   |   |   |   |   |   |    p4 <= 0.027473: zero  (9.0)\
|   |   |   |   |   |   |   |   |   |   |   |    p4 > 0.027473\
|   |   |   |   |   |   |   |   |   |   |   |   |    p32 <= 0.139286\
|   |   |   |   |   |   |   |   |   |   |   |   |   |    p6 <= 0.114011: zero  (11.0/1.0)\
|   |   |   |   |   |   |   |   |   |   |   |   |   |    p6 > 0.114011: one  (4.0)\
|   |   |   |   |   |   |   |   |   |   |   |   |    p32 > 0.139286: zero  (10.0)\
|   |   |   |   |   |   |   |   |   |   |    p12 > 0.090909: zero  (51.0)\
|   |   |   |   |   |   |   |   |   |    p32 > 0.146429\
|   |   |   |   |   |   |   |   |   |   |    p28 <= 0.108766: zero  (7.0)\
|   |   |   |   |   |   |   |   |   |   |    p28 > 0.108766\
|   |   |   |   |   |   |   |   |   |   |   |    p28 <= 0.112013: one  (7.0/1.0)\
|   |   |   |   |   |   |   |   |   |   |   |    p28 > 0.112013: zero  (4.0)\
|   |   |   |   |   |   |   |   |    p33 > 0.142857: zero  (80.0/1.0)\
|   |    p12 > 0.112013\
|   |   |    p8 <= 0.08631\
|   |   |   |    p17 <= 0.117857: zero  (197.0)\
|   |   |   |    p17 > 0.117857\
|   |   |   |   |    p7 <= 0.741071\
|   |   |   |   |   |    p24 <= 0.066964: zero  (30.0)\
|   |   |   |   |   |    p24 > 0.066964\
|   |   |   |   |   |   |    p18 <= 0.080357: zero  (34.0)\
|   |   |   |   |   |   |    p18 > 0.080357\
|   |   |   |   |   |   |   |    p6 <= 0.15522: one  (4.0)\
|   |   |   |   |   |   |   |    p6 > 0.15522: zero  (30.0/1.0)\
|   |   |   |   |    p7 > 0.741071\
|   |   |   |   |   |    p25 <= 0.063988: zero  (6.0)\
|   |   |   |   |   |    p25 > 0.063988\
|   |   |   |   |   |   |    p17 <= 0.130357\
|   |   |   |   |   |   |   |    p26 <= 0.081845: one  (3.0/1.0)\
|   |   |   |   |   |   |   |    p26 > 0.081845: zero  (9.0)\
|   |   |   |   |   |   |    p17 > 0.130357\
|   |   |   |   |   |   |   |    p9 <= 0.08631\
|   |   |   |   |   |   |   |   |    p12 <= 0.118506\
|   |   |   |   |   |   |   |   |   |    p13 <= 0.12013: one  (4.0)\
|   |   |   |   |   |   |   |   |   |    p13 > 0.12013: zero  (4.0)\
|   |   |   |   |   |   |   |   |    p12 > 0.118506: one  (11.0)\
|   |   |   |   |   |   |   |    p9 > 0.08631: zero  (2.0)\
|   |   |    p8 > 0.08631\
|   |   |   |    p18 <= 0.066071: zero  (546.0)\
|   |   |   |    p18 > 0.066071\
|   |   |   |   |    p10 <= 0.090774\
|   |   |   |   |   |    p29 <= 0.095779\
|   |   |   |   |   |   |    p25 <= 0.065476: one  (2.0)\
|   |   |   |   |   |   |    p25 > 0.065476: zero  (3.0/1.0)\
|   |   |   |   |   |    p29 > 0.095779: zero  (4.0)\
|   |   |   |   |    p10 > 0.090774: zero  (171.0/1.0)\
 p20 > 0.032967\
|    p8 <= 0.078869\
|   |    p25 <= 0.096726\
|   |   |    p4 <= 0.026099\
|   |   |   |    p20 <= 0.035714\
|   |   |   |   |    p5 <= 0.021978\
|   |   |   |   |   |    p20 <= 0.034341\
|   |   |   |   |   |   |    p9 <= 0.03125: one  (14.0/1.0)\
|   |   |   |   |   |   |    p9 > 0.03125\
|   |   |   |   |   |   |   |    p16 <= 0.057143: zero  (9.0/1.0)\
|   |   |   |   |   |   |   |    p16 > 0.057143: one  (158.0/52.0)\
|   |   |   |   |   |    p20 > 0.034341\
|   |   |   |   |   |   |    p33 <= 0.110714\
|   |   |   |   |   |   |   |    p10 <= 0.0625\
|   |   |   |   |   |   |   |   |    p27 <= 0.798701\
|   |   |   |   |   |   |   |   |   |    p17 <= 0.067857: zero  (5.0/1.0)\
|   |   |   |   |   |   |   |   |   |    p17 > 0.067857: one  (5.0)\
|   |   |   |   |   |   |   |   |    p27 > 0.798701: one  (42.0/10.0)\
|   |   |   |   |   |   |   |    p10 > 0.0625: one  (65.0/5.0)\
|   |   |   |   |   |   |    p33 > 0.110714\
|   |   |   |   |   |   |   |    p28 <= 0.113636: one  (79.0/22.0)\
|   |   |   |   |   |   |   |    p28 > 0.113636\
|   |   |   |   |   |   |   |   |    p13 <= 0.069805: one  (44.0)\
|   |   |   |   |   |   |   |   |    p13 > 0.069805\
|   |   |   |   |   |   |   |   |   |    p24 <= 0.075893: one  (3.0)\
|   |   |   |   |   |   |   |   |   |    p24 > 0.075893\
|   |   |   |   |   |   |   |   |   |   |    p17 <= 0.080357: one  (2.0)\
|   |   |   |   |   |   |   |   |   |   |    p17 > 0.080357: zero  (3.0)\
|   |   |   |   |    p5 > 0.021978\
|   |   |   |   |   |    p13 <= 0.084416\
|   |   |   |   |   |   |    p33 <= 0.1\
|   |   |   |   |   |   |   |    p10 <= 0.056548\
|   |   |   |   |   |   |   |   |    p13 <= 0.058442\
|   |   |   |   |   |   |   |   |   |    p8 <= 0.047619\
|   |   |   |   |   |   |   |   |   |   |    p20 <= 0.034341: one  (7.0/1.0)\
|   |   |   |   |   |   |   |   |   |   |    p20 > 0.034341: zero  (4.0/1.0)\
|   |   |   |   |   |   |   |   |   |    p8 > 0.047619: zero  (5.0)\
|   |   |   |   |   |   |   |   |    p13 > 0.058442\
|   |   |   |   |   |   |   |   |   |    p28 <= 0.094156\
|   |   |   |   |   |   |   |   |   |   |    p13 <= 0.066558: one  (14.0)\
|   |   |   |   |   |   |   |   |   |   |    p13 > 0.066558\
|   |   |   |   |   |   |   |   |   |   |   |    p34 <= 0.017857: zero  (3.0)\
|   |   |   |   |   |   |   |   |   |   |   |    p34 > 0.017857: one  (9.0/1.0)\
|   |   |   |   |   |   |   |   |   |    p28 > 0.094156: zero  (2.0)\
|   |   |   |   |   |   |   |    p10 > 0.056548: one  (26.0)\
|   |   |   |   |   |   |    p33 > 0.1\
|   |   |   |   |   |   |   |    p15 <= 0.8\
|   |   |   |   |   |   |   |   |    p17 <= 0.073214\
|   |   |   |   |   |   |   |   |   |    p33 <= 0.114286\
|   |   |   |   |   |   |   |   |   |   |    p15 <= 0.792857: one  (12.0)\
|   |   |   |   |   |   |   |   |   |   |    p15 > 0.792857: zero  (4.0/1.0)\
|   |   |   |   |   |   |   |   |   |    p33 > 0.114286\
|   |   |   |   |   |   |   |   |   |   |    p28 <= 0.103896: zero  (14.0)\
|   |   |   |   |   |   |   |   |   |   |    p28 > 0.103896\
|   |   |   |   |   |   |   |   |   |   |   |    p12 <= 0.063312: one  (2.0)\
|   |   |   |   |   |   |   |   |   |   |   |    p12 > 0.063312\
|   |   |   |   |   |   |   |   |   |   |   |   |    p15 <= 0.764286\
|   |   |   |   |   |   |   |   |   |   |   |   |   |    p26 <= 0.08631: one  (3.0)\
|   |   |   |   |   |   |   |   |   |   |   |   |   |    p26 > 0.08631: zero  (6.0/1.0)\
|   |   |   |   |   |   |   |   |   |   |   |   |    p15 > 0.764286: zero  (12.0)\
|   |   |   |   |   |   |   |   |    p17 > 0.073214\
|   |   |   |   |   |   |   |   |   |    p16 <= 0.1125\
|   |   |   |   |   |   |   |   |   |   |    p16 <= 0.089286\
|   |   |   |   |   |   |   |   |   |   |   |    p13 <= 0.073052\
|   |   |   |   |   |   |   |   |   |   |   |   |    p12 <= 0.063312: zero  (4.0)\
|   |   |   |   |   |   |   |   |   |   |   |   |    p12 > 0.063312\
|   |   |   |   |   |   |   |   |   |   |   |   |   |    p17 <= 0.083929: one  (25.0/1.0)\
|   |   |   |   |   |   |   |   |   |   |   |   |   |    p17 > 0.083929\
|   |   |   |   |   |   |   |   |   |   |   |   |   |   |    p12 <= 0.066558: zero  (4.0)\
|   |   |   |   |   |   |   |   |   |   |   |   |   |   |    p12 > 0.066558: one  (2.0)\
|   |   |   |   |   |   |   |   |   |   |   |    p13 > 0.073052\
|   |   |   |   |   |   |   |   |   |   |   |   |    p9 <= 0.049107\
|   |   |   |   |   |   |   |   |   |   |   |   |   |    p4 <= 0.023352: zero  (2.0)\
|   |   |   |   |   |   |   |   |   |   |   |   |   |    p4 > 0.023352\
|   |   |   |   |   |   |   |   |   |   |   |   |   |   |    p16 <= 0.085714: zero  (2.0)\
|   |   |   |   |   |   |   |   |   |   |   |   |   |   |    p16 > 0.085714: one  (4.0/1.0)\
|   |   |   |   |   |   |   |   |   |   |   |   |    p9 > 0.049107: zero  (22.0/1.0)\
|   |   |   |   |   |   |   |   |   |   |    p16 > 0.089286\
|   |   |   |   |   |   |   |   |   |   |   |    p13 <= 0.081169\
|   |   |   |   |   |   |   |   |   |   |   |   |    p13 <= 0.064935\
|   |   |   |   |   |   |   |   |   |   |   |   |   |    p30 <= 0.032468: one  (2.0)\
|   |   |   |   |   |   |   |   |   |   |   |   |   |    p30 > 0.032468: zero  (6.0)\
|   |   |   |   |   |   |   |   |   |   |   |   |    p13 > 0.064935\
|   |   |   |   |   |   |   |   |   |   |   |   |   |    p17 <= 0.1\
|   |   |   |   |   |   |   |   |   |   |   |   |   |   |    p20 <= 0.034341\
|   |   |   |   |   |   |   |   |   |   |   |   |   |   |   |    p33 <= 0.132143: one  (25.0)\
|   |   |   |   |   |   |   |   |   |   |   |   |   |   |   |    p33 > 0.132143\
|   |   |   |   |   |   |   |   |   |   |   |   |   |   |   |   |    p4 <= 0.024725: one  (13.0/1.0)\
|   |   |   |   |   |   |   |   |   |   |   |   |   |   |   |   |    p4 > 0.024725\
|   |   |   |   |   |   |   |   |   |   |   |   |   |   |   |   |   |    p14 <= 0.095779: one  (5.0)\
|   |   |   |   |   |   |   |   |   |   |   |   |   |   |   |   |   |    p14 > 0.095779: zero  (3.0)\
|   |   |   |   |   |   |   |   |   |   |   |   |   |   |    p20 > 0.034341\
|   |   |   |   |   |   |   |   |   |   |   |   |   |   |   |    p24 <= 0.074405\
|   |   |   |   |   |   |   |   |   |   |   |   |   |   |   |   |    p9 <= 0.047619: zero  (2.0)\
|   |   |   |   |   |   |   |   |   |   |   |   |   |   |   |   |    p9 > 0.047619\
|   |   |   |   |   |   |   |   |   |   |   |   |   |   |   |   |   |    p4 <= 0.023352: one  (5.0)\
|   |   |   |   |   |   |   |   |   |   |   |   |   |   |   |   |   |    p4 > 0.023352\
|   |   |   |   |   |   |   |   |   |   |   |   |   |   |   |   |   |   |    p33 <= 0.139286\
|   |   |   |   |   |   |   |   |   |   |   |   |   |   |   |   |   |   |   |    p16 <= 0.094643\
|   |   |   |   |   |   |   |   |   |   |   |   |   |   |   |   |   |   |   |   |    p13 <= 0.077922\
|   |   |   |   |   |   |   |   |   |   |   |   |   |   |   |   |   |   |   |   |   |    p24 <= 0.072917\
|   |   |   |   |   |   |   |   |   |   |   |   |   |   |   |   |   |   |   |   |   |   |    p12 <= 0.076299: one  (2.0)\
|   |   |   |   |   |   |   |   |   |   |   |   |   |   |   |   |   |   |   |   |   |   |    p12 > 0.076299: zero  (2.0)\
|   |   |   |   |   |   |   |   |   |   |   |   |   |   |   |   |   |   |   |   |   |    p24 > 0.072917: one  (4.0)\
|   |   |   |   |   |   |   |   |   |   |   |   |   |   |   |   |   |   |   |   |    p13 > 0.077922: zero  (2.0)\
|   |   |   |   |   |   |   |   |   |   |   |   |   |   |   |   |   |   |   |    p16 > 0.094643: one  (11.0)\
|   |   |   |   |   |   |   |   |   |   |   |   |   |   |   |   |   |   |    p33 > 0.139286: zero  (2.0)\
|   |   |   |   |   |   |   |   |   |   |   |   |   |   |   |    p24 > 0.074405\
|   |   |   |   |   |   |   |   |   |   |   |   |   |   |   |   |    p13 <= 0.077922: one  (46.0/3.0)\
|   |   |   |   |   |   |   |   |   |   |   |   |   |   |   |   |    p13 > 0.077922\
|   |   |   |   |   |   |   |   |   |   |   |   |   |   |   |   |   |    p12 <= 0.076299: zero  (3.0)\
|   |   |   |   |   |   |   |   |   |   |   |   |   |   |   |   |   |    p12 > 0.076299: one  (5.0)\
|   |   |   |   |   |   |   |   |   |   |   |   |   |    p17 > 0.1\
|   |   |   |   |   |   |   |   |   |   |   |   |   |   |    p24 <= 0.072917: zero  (3.0)\
|   |   |   |   |   |   |   |   |   |   |   |   |   |   |    p24 > 0.072917: one  (4.0/1.0)\
|   |   |   |   |   |   |   |   |   |   |   |    p13 > 0.081169\
|   |   |   |   |   |   |   |   |   |   |   |   |    p16 <= 0.101786: zero  (9.0)\
|   |   |   |   |   |   |   |   |   |   |   |   |    p16 > 0.101786: one  (8.0/1.0)\
|   |   |   |   |   |   |   |   |   |    p16 > 0.1125\
|   |   |   |   |   |   |   |   |   |   |    p13 <= 0.077922: zero  (16.0)\
|   |   |   |   |   |   |   |   |   |   |    p13 > 0.077922: one  (8.0/1.0)\
|   |   |   |   |   |   |   |    p15 > 0.8\
|   |   |   |   |   |   |   |   |    p6 <= 0.071429\
|   |   |   |   |   |   |   |   |   |    p23 <= 0.822917: one  (3.0)\
|   |   |   |   |   |   |   |   |   |    p23 > 0.822917: zero  (5.0)\
|   |   |   |   |   |   |   |   |    p6 > 0.071429: zero  (16.0)\
|   |   |   |   |   |    p13 > 0.084416\
|   |   |   |   |   |   |    p12 <= 0.087662\
|   |   |   |   |   |   |   |    p4 <= 0.024725: zero  (5.0)\
|   |   |   |   |   |   |   |    p4 > 0.024725\
|   |   |   |   |   |   |   |   |    p9 <= 0.05506\
|   |   |   |   |   |   |   |   |   |    p31 <= 0.671429: zero  (4.0)\
|   |   |   |   |   |   |   |   |   |    p31 > 0.671429: one  (2.0)\
|   |   |   |   |   |   |   |   |    p9 > 0.05506: zero  (15.0/1.0)\
|   |   |   |   |   |   |    p12 > 0.087662: one  (3.0)\
|   |   |   |    p20 > 0.035714\
|   |   |   |   |    p20 <= 0.046703\
|   |   |   |   |   |    p4 <= 0.023352\
|   |   |   |   |   |   |    p24 <= 0.080357\
|   |   |   |   |   |   |   |    p9 <= 0.049107\
|   |   |   |   |   |   |   |   |    p32 <= 0.146429\
|   |   |   |   |   |   |   |   |   |    p30 <= 0.050325\
|   |   |   |   |   |   |   |   |   |   |    p8 <= 0.044643\
|   |   |   |   |   |   |   |   |   |   |   |    p17 <= 0.060714\
|   |   |   |   |   |   |   |   |   |   |   |   |    p13 <= 0.053571\
|   |   |   |   |   |   |   |   |   |   |   |   |   |    p4 <= 0.013736\
|   |   |   |   |   |   |   |   |   |   |   |   |   |   |    p9 <= 0.02381: zero  (3.0)\
|   |   |   |   |   |   |   |   |   |   |   |   |   |   |    p9 > 0.02381\
|   |   |   |   |   |   |   |   |   |   |   |   |   |   |   |    p20 <= 0.037088: one  (8.0)\
|   |   |   |   |   |   |   |   |   |   |   |   |   |   |   |    p20 > 0.037088\
|   |   |   |   |   |   |   |   |   |   |   |   |   |   |   |   |    p17 <= 0.051786: one  (10.0/1.0)\
|   |   |   |   |   |   |   |   |   |   |   |   |   |   |   |   |    p17 > 0.051786: zero  (2.0)\
|   |   |   |   |   |   |   |   |   |   |   |   |   |    p4 > 0.013736\
|   |   |   |   |   |   |   |   |   |   |   |   |   |   |    p12 <= 0.053571\
|   |   |   |   |   |   |   |   |   |   |   |   |   |   |   |    p13 <= 0.050325\
|   |   |   |   |   |   |   |   |   |   |   |   |   |   |   |   |    p28 <= 0.074675\
|   |   |   |   |   |   |   |   |   |   |   |   |   |   |   |   |   |    p24 <= 0.066964: one  (20.0)\
|   |   |   |   |   |   |   |   |   |   |   |   |   |   |   |   |   |    p24 > 0.066964\
|   |   |   |   |   |   |   |   |   |   |   |   |   |   |   |   |   |   |    p4 <= 0.01511: one  (2.0)\
|   |   |   |   |   |   |   |   |   |   |   |   |   |   |   |   |   |   |    p4 > 0.01511: zero  (2.0)\
|   |   |   |   |   |   |   |   |   |   |   |   |   |   |   |   |    p28 > 0.074675: one  (124.0)\
|   |   |   |   |   |   |   |   |   |   |   |   |   |   |   |    p13 > 0.050325\
|   |   |   |   |   |   |   |   |   |   |   |   |   |   |   |   |    p12 <= 0.047078: zero  (3.0)\
|   |   |   |   |   |   |   |   |   |   |   |   |   |   |   |   |    p12 > 0.047078: one  (16.0/2.0)\
|   |   |   |   |   |   |   |   |   |   |   |   |   |   |    p12 > 0.053571\
|   |   |   |   |   |   |   |   |   |   |   |   |   |   |   |    p13 <= 0.047078: zero  (6.0/1.0)\
|   |   |   |   |   |   |   |   |   |   |   |   |   |   |   |    p13 > 0.047078\
|   |   |   |   |   |   |   |   |   |   |   |   |   |   |   |   |    p12 <= 0.058442: one  (31.0)\
|   |   |   |   |   |   |   |   |   |   |   |   |   |   |   |   |    p12 > 0.058442\
|   |   |   |   |   |   |   |   |   |   |   |   |   |   |   |   |   |    p16 <= 0.075: zero  (2.0)\
|   |   |   |   |   |   |   |   |   |   |   |   |   |   |   |   |   |    p16 > 0.075: one  (3.0)\
|   |   |   |   |   |   |   |   |   |   |   |   |    p13 > 0.053571\
|   |   |   |   |   |   |   |   |   |   |   |   |   |    p17 <= 0.053571: zero  (3.0)\
|   |   |   |   |   |   |   |   |   |   |   |   |   |    p17 > 0.053571\
|   |   |   |   |   |   |   |   |   |   |   |   |   |   |    p12 <= 0.056818\
|   |   |   |   |   |   |   |   |   |   |   |   |   |   |   |    p8 <= 0.03869: zero  (5.0/1.0)\
|   |   |   |   |   |   |   |   |   |   |   |   |   |   |   |    p8 > 0.03869\
|   |   |   |   |   |   |   |   |   |   |   |   |   |   |   |   |    p24 <= 0.074405: zero  (5.0/1.0)\
|   |   |   |   |   |   |   |   |   |   |   |   |   |   |   |   |    p24 > 0.074405: one  (12.0/1.0)\
|   |   |   |   |   |   |   |   |   |   |   |   |   |   |    p12 > 0.056818: one  (18.0/1.0)\
|   |   |   |   |   |   |   |   |   |   |   |    p17 > 0.060714\
|   |   |   |   |   |   |   |   |   |   |   |   |    p13 <= 0.064935\
|   |   |   |   |   |   |   |   |   |   |   |   |   |    p12 <= 0.056818\
|   |   |   |   |   |   |   |   |   |   |   |   |   |   |    p13 <= 0.058442: one  (52.0/2.0)\
|   |   |   |   |   |   |   |   |   |   |   |   |   |   |    p13 > 0.058442\
|   |   |   |   |   |   |   |   |   |   |   |   |   |   |   |    p13 <= 0.060065: one  (6.0)\
|   |   |   |   |   |   |   |   |   |   |   |   |   |   |   |    p13 > 0.060065: zero  (3.0)\
|   |   |   |   |   |   |   |   |   |   |   |   |   |    p12 > 0.056818: one  (141.0/2.0)\
|   |   |   |   |   |   |   |   |   |   |   |   |    p13 > 0.064935\
|   |   |   |   |   |   |   |   |   |   |   |   |   |    p12 <= 0.063312: zero  (5.0/1.0)\
|   |   |   |   |   |   |   |   |   |   |   |   |   |    p12 > 0.063312: one  (19.0)\
|   |   |   |   |   |   |   |   |   |   |    p8 > 0.044643\
|   |   |   |   |   |   |   |   |   |   |   |    p17 <= 0.067857\
|   |   |   |   |   |   |   |   |   |   |   |   |    p13 <= 0.064935\
|   |   |   |   |   |   |   |   |   |   |   |   |   |    p9 <= 0.044643: zero  (3.0)\
|   |   |   |   |   |   |   |   |   |   |   |   |   |    p9 > 0.044643\
|   |   |   |   |   |   |   |   |   |   |   |   |   |   |    p17 <= 0.057143: zero  (2.0)\
|   |   |   |   |   |   |   |   |   |   |   |   |   |   |    p17 > 0.057143\
|   |   |   |   |   |   |   |   |   |   |   |   |   |   |   |    p4 <= 0.021978: one  (9.0/1.0)\
|   |   |   |   |   |   |   |   |   |   |   |   |   |   |   |    p4 > 0.021978\
|   |   |   |   |   |   |   |   |   |   |   |   |   |   |   |   |    p24 <= 0.075893\
|   |   |   |   |   |   |   |   |   |   |   |   |   |   |   |   |   |    p33 <= 0.091071: one  (3.0)\
|   |   |   |   |   |   |   |   |   |   |   |   |   |   |   |   |   |    p33 > 0.091071\
|   |   |   |   |   |   |   |   |   |   |   |   |   |   |   |   |   |   |    p15 <= 0.796429: one  (2.0)\
|   |   |   |   |   |   |   |   |   |   |   |   |   |   |   |   |   |   |    p15 > 0.796429: zero  (3.0)\
|   |   |   |   |   |   |   |   |   |   |   |   |   |   |   |   |    p24 > 0.075893: one  (7.0)\
|   |   |   |   |   |   |   |   |   |   |   |   |    p13 > 0.064935: zero  (7.0)\
|   |   |   |   |   |   |   |   |   |   |   |    p17 > 0.067857\
|   |   |   |   |   |   |   |   |   |   |   |   |    p13 <= 0.069805\
|   |   |   |   |   |   |   |   |   |   |   |   |   |    p13 <= 0.058442\
|   |   |   |   |   |   |   |   |   |   |   |   |   |   |    p9 <= 0.044643: zero  (2.0)\
|   |   |   |   |   |   |   |   |   |   |   |   |   |   |    p9 > 0.044643: one  (3.0)\
|   |   |   |   |   |   |   |   |   |   |   |   |   |    p13 > 0.058442\
|   |   |   |   |   |   |   |   |   |   |   |   |   |   |    p20 <= 0.038462: one  (69.0)\
|   |   |   |   |   |   |   |   |   |   |   |   |   |   |    p20 > 0.038462\
|   |   |   |   |   |   |   |   |   |   |   |   |   |   |   |    p12 <= 0.063312: zero  (3.0/1.0)\
|   |   |   |   |   |   |   |   |   |   |   |   |   |   |   |    p12 > 0.063312: one  (13.0)\
|   |   |   |   |   |   |   |   |   |   |   |   |    p13 > 0.069805\
|   |   |   |   |   |   |   |   |   |   |   |   |   |    p17 <= 0.075: zero  (4.0)\
|   |   |   |   |   |   |   |   |   |   |   |   |   |    p17 > 0.075\
|   |   |   |   |   |   |   |   |   |   |   |   |   |   |    p12 <= 0.071429\
|   |   |   |   |   |   |   |   |   |   |   |   |   |   |   |    p13 <= 0.073052: one  (2.0)\
|   |   |   |   |   |   |   |   |   |   |   |   |   |   |   |    p13 > 0.073052\
|   |   |   |   |   |   |   |   |   |   |   |   |   |   |   |   |    p27 <= 0.73539: one  (2.0)\
|   |   |   |   |   |   |   |   |   |   |   |   |   |   |   |   |    p27 > 0.73539: zero  (3.0)\
|   |   |   |   |   |   |   |   |   |   |   |   |   |   |    p12 > 0.071429: one  (19.0)\
|   |   |   |   |   |   |   |   |   |    p30 > 0.050325\
|   |   |   |   |   |   |   |   |   |   |    p16 <= 0.092857\
|   |   |   |   |   |   |   |   |   |   |   |    p20 <= 0.038462\
|   |   |   |   |   |   |   |   |   |   |   |   |    p33 <= 0.132143\
|   |   |   |   |   |   |   |   |   |   |   |   |   |    p4 <= 0.019231: one  (5.0)\
|   |   |   |   |   |   |   |   |   |   |   |   |   |    p4 > 0.019231\
|   |   |   |   |   |   |   |   |   |   |   |   |   |   |    p8 <= 0.043155: zero  (5.0)\
|   |   |   |   |   |   |   |   |   |   |   |   |   |   |    p8 > 0.043155\
|   |   |   |   |   |   |   |   |   |   |   |   |   |   |   |    p23 <= 0.763393: one  (3.0)\
|   |   |   |   |   |   |   |   |   |   |   |   |   |   |   |    p23 > 0.763393\
|   |   |   |   |   |   |   |   |   |   |   |   |   |   |   |   |    p28 <= 0.095779: one  (2.0)\
|   |   |   |   |   |   |   |   |   |   |   |   |   |   |   |   |    p28 > 0.095779: zero  (5.0)\
|   |   |   |   |   |   |   |   |   |   |   |   |    p33 > 0.132143: zero  (6.0)\
|   |   |   |   |   |   |   |   |   |   |   |    p20 > 0.038462: one  (3.0)\
|   |   |   |   |   |   |   |   |   |   |    p16 > 0.092857: one  (15.0/1.0)\
|   |   |   |   |   |   |   |   |    p32 > 0.146429: one  (47.0)\
|   |   |   |   |   |   |   |    p9 > 0.049107\
|   |   |   |   |   |   |   |   |    p8 <= 0.049107: zero  (6.0/1.0)\
|   |   |   |   |   |   |   |   |    p8 > 0.049107\
|   |   |   |   |   |   |   |   |   |    p30 <= 0.021104: zero  (2.0)\
|   |   |   |   |   |   |   |   |   |    p30 > 0.021104\
|   |   |   |   |   |   |   |   |   |   |    p33 <= 0.121429: one  (14.0)\
|   |   |   |   |   |   |   |   |   |   |    p33 > 0.121429\
|   |   |   |   |   |   |   |   |   |   |   |    p20 <= 0.037088: one  (7.0/1.0)\
|   |   |   |   |   |   |   |   |   |   |   |    p20 > 0.037088: zero  (3.0)\
|   |   |   |   |   |   |    p24 > 0.080357\
|   |   |   |   |   |   |   |    p16 <= 0.098214\
|   |   |   |   |   |   |   |   |    p18 <= 0.069643\
|   |   |   |   |   |   |   |   |   |    p34 <= 0.017857\
|   |   |   |   |   |   |   |   |   |   |    p30 <= 0.008117\
|   |   |   |   |   |   |   |   |   |   |   |    p22 <= 0.054945: one  (8.0)\
|   |   |   |   |   |   |   |   |   |   |   |    p22 > 0.054945: zero  (3.0/1.0)\
|   |   |   |   |   |   |   |   |   |   |    p30 > 0.008117: one  (102.0)\
|   |   |   |   |   |   |   |   |   |    p34 > 0.017857\
|   |   |   |   |   |   |   |   |   |   |    p8 <= 0.040179\
|   |   |   |   |   |   |   |   |   |   |   |    p34 <= 0.032143\
|   |   |   |   |   |   |   |   |   |   |   |   |    p17 <= 0.071429: one  (21.0/2.0)\
|   |   |   |   |   |   |   |   |   |   |   |   |    p17 > 0.071429: zero  (3.0)\
|   |   |   |   |   |   |   |   |   |   |   |    p34 > 0.032143: zero  (3.0)\
|   |   |   |   |   |   |   |   |   |   |    p8 > 0.040179\
|   |   |   |   |   |   |   |   |   |   |   |    p9 <= 0.046131\
|   |   |   |   |   |   |   |   |   |   |   |   |    p34 <= 0.019643\
|   |   |   |   |   |   |   |   |   |   |   |   |   |    p20 <= 0.039835: zero  (2.0)\
|   |   |   |   |   |   |   |   |   |   |   |   |   |    p20 > 0.039835: one  (10.0/1.0)\
|   |   |   |   |   |   |   |   |   |   |   |   |    p34 > 0.019643: one  (58.0)\
|   |   |   |   |   |   |   |   |   |   |   |    p9 > 0.046131\
|   |   |   |   |   |   |   |   |   |   |   |   |    p33 <= 0.1125: one  (23.0/1.0)\
|   |   |   |   |   |   |   |   |   |   |   |   |    p33 > 0.1125\
|   |   |   |   |   |   |   |   |   |   |   |   |   |    p8 <= 0.046131: zero  (2.0)\
|   |   |   |   |   |   |   |   |   |   |   |   |   |    p8 > 0.046131\
|   |   |   |   |   |   |   |   |   |   |   |   |   |   |    p10 <= 0.065476: zero  (3.0)\
|   |   |   |   |   |   |   |   |   |   |   |   |   |   |    p10 > 0.065476\
|   |   |   |   |   |   |   |   |   |   |   |   |   |   |   |    p17 <= 0.071429\
|   |   |   |   |   |   |   |   |   |   |   |   |   |   |   |   |    p13 <= 0.064935\
|   |   |   |   |   |   |   |   |   |   |   |   |   |   |   |   |   |    p20 <= 0.042582: one  (7.0)\
|   |   |   |   |   |   |   |   |   |   |   |   |   |   |   |   |   |    p20 > 0.042582: zero  (2.0)\
|   |   |   |   |   |   |   |   |   |   |   |   |   |   |   |   |    p13 > 0.064935: zero  (4.0)\
|   |   |   |   |   |   |   |   |   |   |   |   |   |   |   |    p17 > 0.071429: one  (20.0/1.0)\
|   |   |   |   |   |   |   |   |    p18 > 0.069643: one  (451.0/11.0)\
|   |   |   |   |   |   |   |    p16 > 0.098214\
|   |   |   |   |   |   |   |   |    p13 <= 0.063312: zero  (5.0)\
|   |   |   |   |   |   |   |   |    p13 > 0.063312\
|   |   |   |   |   |   |   |   |   |    p16 <= 0.107143\
|   |   |   |   |   |   |   |   |   |   |    p17 <= 0.078571\
|   |   |   |   |   |   |   |   |   |   |   |    p28 <= 0.128247: zero  (3.0/1.0)\
|   |   |   |   |   |   |   |   |   |   |   |    p28 > 0.128247: one  (7.0)\
|   |   |   |   |   |   |   |   |   |   |    p17 > 0.078571: one  (47.0)\
|   |   |   |   |   |   |   |   |   |    p16 > 0.107143\
|   |   |   |   |   |   |   |   |   |   |    p13 <= 0.066558: zero  (3.0)\
|   |   |   |   |   |   |   |   |   |   |    p13 > 0.066558\
|   |   |   |   |   |   |   |   |   |   |   |    p7 <= 0.794643: one  (9.0)\
|   |   |   |   |   |   |   |   |   |   |   |    p7 > 0.794643: zero  (2.0)\
|   |   |   |   |   |    p4 > 0.023352\
|   |   |   |   |   |   |    p24 <= 0.077381\
|   |   |   |   |   |   |   |    p33 <= 0.091071\
|   |   |   |   |   |   |   |   |    p17 <= 0.057143\
|   |   |   |   |   |   |   |   |   |    p8 <= 0.046131: one  (3.0)\
|   |   |   |   |   |   |   |   |   |    p8 > 0.046131: zero  (3.0)\
|   |   |   |   |   |   |   |   |    p17 > 0.057143: one  (26.0)\
|   |   |   |   |   |   |   |    p33 > 0.091071\
|   |   |   |   |   |   |   |   |    p17 <= 0.066071\
|   |   |   |   |   |   |   |   |   |    p20 <= 0.042582\
|   |   |   |   |   |   |   |   |   |   |    p12 <= 0.061688\
|   |   |   |   |   |   |   |   |   |   |   |    p31 <= 0.796429: one  (4.0/1.0)\
|   |   |   |   |   |   |   |   |   |   |   |    p31 > 0.796429: zero  (3.0)\
|   |   |   |   |   |   |   |   |   |   |    p12 > 0.061688: zero  (13.0)\
|   |   |   |   |   |   |   |   |   |    p20 > 0.042582: one  (2.0)\
|   |   |   |   |   |   |   |   |    p17 > 0.066071\
|   |   |   |   |   |   |   |   |   |    p13 <= 0.084416\
|   |   |   |   |   |   |   |   |   |   |    p17 <= 0.078571\
|   |   |   |   |   |   |   |   |   |   |   |    p12 <= 0.068182\
|   |   |   |   |   |   |   |   |   |   |   |   |    p24 <= 0.074405\
|   |   |   |   |   |   |   |   |   |   |   |   |   |    p16 <= 0.073214: zero  (6.0/1.0)\
|   |   |   |   |   |   |   |   |   |   |   |   |   |    p16 > 0.073214: one  (9.0/1.0)\
|   |   |   |   |   |   |   |   |   |   |   |   |    p24 > 0.074405: one  (19.0/1.0)\
|   |   |   |   |   |   |   |   |   |   |   |    p12 > 0.068182\
|   |   |   |   |   |   |   |   |   |   |   |   |    p17 <= 0.076786\
|   |   |   |   |   |   |   |   |   |   |   |   |   |    p34 <= 0.044643: zero  (13.0)\
|   |   |   |   |   |   |   |   |   |   |   |   |   |    p34 > 0.044643\
|   |   |   |   |   |   |   |   |   |   |   |   |   |   |    p28 <= 0.102273: one  (2.0)\
|   |   |   |   |   |   |   |   |   |   |   |   |   |   |    p28 > 0.102273: zero  (2.0)\
|   |   |   |   |   |   |   |   |   |   |   |   |    p17 > 0.076786\
|   |   |   |   |   |   |   |   |   |   |   |   |   |    p12 <= 0.074675: one  (2.0)\
|   |   |   |   |   |   |   |   |   |   |   |   |   |    p12 > 0.074675\
|   |   |   |   |   |   |   |   |   |   |   |   |   |   |    p7 <= 0.791667: one  (2.0)\
|   |   |   |   |   |   |   |   |   |   |   |   |   |   |    p7 > 0.791667: zero  (2.0)\
|   |   |   |   |   |   |   |   |   |   |    p17 > 0.078571\
|   |   |   |   |   |   |   |   |   |   |   |    p8 <= 0.05506\
|   |   |   |   |   |   |   |   |   |   |   |   |    p4 <= 0.024725\
|   |   |   |   |   |   |   |   |   |   |   |   |   |    p16 <= 0.1\
|   |   |   |   |   |   |   |   |   |   |   |   |   |   |    p9 <= 0.052083: one  (9.0/1.0)\
|   |   |   |   |   |   |   |   |   |   |   |   |   |   |    p9 > 0.052083\
|   |   |   |   |   |   |   |   |   |   |   |   |   |   |   |    p13 <= 0.074675: one  (2.0)\
|   |   |   |   |   |   |   |   |   |   |   |   |   |   |   |    p13 > 0.074675: zero  (3.0)\
|   |   |   |   |   |   |   |   |   |   |   |   |   |    p16 > 0.1: one  (12.0)\
|   |   |   |   |   |   |   |   |   |   |   |   |    p4 > 0.024725: one  (24.0/1.0)\
|   |   |   |   |   |   |   |   |   |   |   |    p8 > 0.05506\
|   |   |   |   |   |   |   |   |   |   |   |   |    p13 <= 0.073052: zero  (3.0)\
|   |   |   |   |   |   |   |   |   |   |   |   |    p13 > 0.073052: one  (2.0)\
|   |   |   |   |   |   |   |   |   |    p13 > 0.084416: zero  (6.0/1.0)\
|   |   |   |   |   |   |    p24 > 0.077381\
|   |   |   |   |   |   |   |    p33 <= 0.1125\
|   |   |   |   |   |   |   |   |    p28 <= 0.099026\
|   |   |   |   |   |   |   |   |   |    p12 <= 0.074675\
|   |   |   |   |   |   |   |   |   |   |    p9 <= 0.053571: one  (54.0)\
|   |   |   |   |   |   |   |   |   |   |    p9 > 0.053571\
|   |   |   |   |   |   |   |   |   |   |   |    p33 <= 0.105357: one  (3.0)\
|   |   |   |   |   |   |   |   |   |   |   |    p33 > 0.105357: zero  (2.0)\
|   |   |   |   |   |   |   |   |   |    p12 > 0.074675\
|   |   |   |   |   |   |   |   |   |   |    p10 <= 0.065476: one  (5.0/1.0)\
|   |   |   |   |   |   |   |   |   |   |    p10 > 0.065476: zero  (3.0)\
|   |   |   |   |   |   |   |   |    p28 > 0.099026: one  (94.0)\
|   |   |   |   |   |   |   |    p33 > 0.1125\
|   |   |   |   |   |   |   |   |    p9 <= 0.047619\
|   |   |   |   |   |   |   |   |   |    p8 <= 0.047619: one  (20.0/2.0)\
|   |   |   |   |   |   |   |   |   |    p8 > 0.047619: zero  (20.0/1.0)\
|   |   |   |   |   |   |   |   |    p9 > 0.047619\
|   |   |   |   |   |   |   |   |   |    p17 <= 0.076786\
|   |   |   |   |   |   |   |   |   |   |    p8 <= 0.05506\
|   |   |   |   |   |   |   |   |   |   |   |    p13 <= 0.071429\
|   |   |   |   |   |   |   |   |   |   |   |   |    p24 <= 0.078869\
|   |   |   |   |   |   |   |   |   |   |   |   |   |    p4 <= 0.024725: one  (3.0/1.0)\
|   |   |   |   |   |   |   |   |   |   |   |   |   |    p4 > 0.024725: zero  (3.0)\
|   |   |   |   |   |   |   |   |   |   |   |   |    p24 > 0.078869\
|   |   |   |   |   |   |   |   |   |   |   |   |   |    p16 <= 0.1\
|   |   |   |   |   |   |   |   |   |   |   |   |   |   |    p15 <= 0.7875\
|   |   |   |   |   |   |   |   |   |   |   |   |   |   |   |    p20 <= 0.041209: one  (46.0)\
|   |   |   |   |   |   |   |   |   |   |   |   |   |   |   |    p20 > 0.041209\
|   |   |   |   |   |   |   |   |   |   |   |   |   |   |   |   |    p24 <= 0.084821: zero  (2.0)\
|   |   |   |   |   |   |   |   |   |   |   |   |   |   |   |   |    p24 > 0.084821: one  (22.0/1.0)\
|   |   |   |   |   |   |   |   |   |   |   |   |   |   |    p15 > 0.7875\
|   |   |   |   |   |   |   |   |   |   |   |   |   |   |   |    p13 <= 0.066558: one  (8.0)\
|   |   |   |   |   |   |   |   |   |   |   |   |   |   |   |    p13 > 0.066558: zero  (6.0/1.0)\
|   |   |   |   |   |   |   |   |   |   |   |   |   |    p16 > 0.1\
|   |   |   |   |   |   |   |   |   |   |   |   |   |   |    p13 <= 0.066558: zero  (3.0)\
|   |   |   |   |   |   |   |   |   |   |   |   |   |   |    p13 > 0.066558: one  (2.0)\
|   |   |   |   |   |   |   |   |   |   |   |    p13 > 0.071429\
|   |   |   |   |   |   |   |   |   |   |   |   |    p27 <= 0.706169: one  (8.0)\
|   |   |   |   |   |   |   |   |   |   |   |   |    p27 > 0.706169\
|   |   |   |   |   |   |   |   |   |   |   |   |   |    p33 <= 0.117857: one  (4.0)\
|   |   |   |   |   |   |   |   |   |   |   |   |   |    p33 > 0.117857\
|   |   |   |   |   |   |   |   |   |   |   |   |   |   |    p17 <= 0.075: zero  (19.0)\
|   |   |   |   |   |   |   |   |   |   |   |   |   |   |    p17 > 0.075\
|   |   |   |   |   |   |   |   |   |   |   |   |   |   |   |    p27 <= 0.719156: one  (2.0)\
|   |   |   |   |   |   |   |   |   |   |   |   |   |   |   |    p27 > 0.719156: zero  (2.0)\
|   |   |   |   |   |   |   |   |   |   |    p8 > 0.05506: zero  (11.0/1.0)\
|   |   |   |   |   |   |   |   |   |    p17 > 0.076786\
|   |   |   |   |   |   |   |   |   |   |    p33 <= 0.1375\
|   |   |   |   |   |   |   |   |   |   |   |    p28 <= 0.103896\
|   |   |   |   |   |   |   |   |   |   |   |   |    p33 <= 0.119643\
|   |   |   |   |   |   |   |   |   |   |   |   |   |    p10 <= 0.052083: zero  (2.0)\
|   |   |   |   |   |   |   |   |   |   |   |   |   |    p10 > 0.052083: one  (8.0)\
|   |   |   |   |   |   |   |   |   |   |   |   |    p33 > 0.119643: zero  (2.0)\
|   |   |   |   |   |   |   |   |   |   |   |    p28 > 0.103896\
|   |   |   |   |   |   |   |   |   |   |   |   |    p9 <= 0.050595\
|   |   |   |   |   |   |   |   |   |   |   |   |   |    p12 <= 0.082792: one  (37.0/1.0)\
|   |   |   |   |   |   |   |   |   |   |   |   |   |    p12 > 0.082792: zero  (5.0)\
|   |   |   |   |   |   |   |   |   |   |   |   |    p9 > 0.050595\
|   |   |   |   |   |   |   |   |   |   |   |   |   |    p12 <= 0.071429\
|   |   |   |   |   |   |   |   |   |   |   |   |   |   |    p17 <= 0.083929: one  (13.0)\
|   |   |   |   |   |   |   |   |   |   |   |   |   |   |    p17 > 0.083929: zero  (3.0)\
|   |   |   |   |   |   |   |   |   |   |   |   |   |    p12 > 0.071429\
|   |   |   |   |   |   |   |   |   |   |   |   |   |   |    p13 <= 0.084416: one  (138.0/1.0)\
|   |   |   |   |   |   |   |   |   |   |   |   |   |   |    p13 > 0.084416\
|   |   |   |   |   |   |   |   |   |   |   |   |   |   |   |    p24 <= 0.080357\
|   |   |   |   |   |   |   |   |   |   |   |   |   |   |   |   |   p1 <= 0.86352: zero  (2.0)\
|   |   |   |   |   |   |   |   |   |   |   |   |   |   |   |   |   p1 > 0.86352: one  (2.0)\
|   |   |   |   |   |   |   |   |   |   |   |   |   |   |   |    p24 > 0.080357: one  (5.0)\
|   |   |   |   |   |   |   |   |   |   |    p33 > 0.1375\
|   |   |   |   |   |   |   |   |   |   |   |    p16 <= 0.121429\
|   |   |   |   |   |   |   |   |   |   |   |   |    p28 <= 0.123377\
|   |   |   |   |   |   |   |   |   |   |   |   |   |    p17 <= 0.085714: zero  (10.0)\
|   |   |   |   |   |   |   |   |   |   |   |   |   |    p17 > 0.085714\
|   |   |   |   |   |   |   |   |   |   |   |   |   |   |    p8 <= 0.050595: zero  (2.0)\
|   |   |   |   |   |   |   |   |   |   |   |   |   |   |    p8 > 0.050595\
|   |   |   |   |   |   |   |   |   |   |   |   |   |   |   |    p13 <= 0.077922: one  (6.0)\
|   |   |   |   |   |   |   |   |   |   |   |   |   |   |   |    p13 > 0.077922\
|   |   |   |   |   |   |   |   |   |   |   |   |   |   |   |   |    p4 <= 0.024725: zero  (2.0)\
|   |   |   |   |   |   |   |   |   |   |   |   |   |   |   |   |    p4 > 0.024725\
|   |   |   |   |   |   |   |   |   |   |   |   |   |   |   |   |   |    p20 <= 0.039835: one  (10.0/2.0)\
|   |   |   |   |   |   |   |   |   |   |   |   |   |   |   |   |   |    p20 > 0.039835: zero  (2.0)\
|   |   |   |   |   |   |   |   |   |   |   |   |    p28 > 0.123377\
|   |   |   |   |   |   |   |   |   |   |   |   |   |    p24 <= 0.09375\
|   |   |   |   |   |   |   |   |   |   |   |   |   |   |    p28 <= 0.126623\
|   |   |   |   |   |   |   |   |   |   |   |   |   |   |   |    p13 <= 0.084416\
|   |   |   |   |   |   |   |   |   |   |   |   |   |   |   |   |    p12 <= 0.073052\
|   |   |   |   |   |   |   |   |   |   |   |   |   |   |   |   |   |    p24 <= 0.081845: zero  (3.0)\
|   |   |   |   |   |   |   |   |   |   |   |   |   |   |   |   |   |    p24 > 0.081845: one  (4.0)\
|   |   |   |   |   |   |   |   |   |   |   |   |   |   |   |   |    p12 > 0.073052: one  (17.0)\
|   |   |   |   |   |   |   |   |   |   |   |   |   |   |   |    p13 > 0.084416\
|   |   |   |   |   |   |   |   |   |   |   |   |   |   |   |   |    p17 <= 0.091071: zero  (4.0)\
|   |   |   |   |   |   |   |   |   |   |   |   |   |   |   |   |    p17 > 0.091071: one  (4.0/1.0)\
|   |   |   |   |   |   |   |   |   |   |   |   |   |   |    p28 > 0.126623\
|   |   |   |   |   |   |   |   |   |   |   |   |   |   |   |    p33 <= 0.151786: one  (51.0)\
|   |   |   |   |   |   |   |   |   |   |   |   |   |   |   |    p33 > 0.151786\
|   |   |   |   |   |   |   |   |   |   |   |   |   |   |   |   |    p4 <= 0.024725\
|   |   |   |   |   |   |   |   |   |   |   |   |   |   |   |   |   |    p8 <= 0.050595: one  (7.0)\
|   |   |   |   |   |   |   |   |   |   |   |   |   |   |   |   |   |    p8 > 0.050595\
|   |   |   |   |   |   |   |   |   |   |   |   |   |   |   |   |   |   |    p32 <= 0.173214\
|   |   |   |   |   |   |   |   |   |   |   |   |   |   |   |   |   |   |   |    p22 <= 0.119505: one  (3.0)\
|   |   |   |   |   |   |   |   |   |   |   |   |   |   |   |   |   |   |   |    p22 > 0.119505: zero  (4.0/1.0)\
|   |   |   |   |   |   |   |   |   |   |   |   |   |   |   |   |   |   |    p32 > 0.173214: one  (12.0)\
|   |   |   |   |   |   |   |   |   |   |   |   |   |   |   |   |    p4 > 0.024725\
|   |   |   |   |   |   |   |   |   |   |   |   |   |   |   |   |   |    p17 <= 0.080357: zero  (2.0)\
|   |   |   |   |   |   |   |   |   |   |   |   |   |   |   |   |   |    p17 > 0.080357: one  (37.0/1.0)\
|   |   |   |   |   |   |   |   |   |   |   |   |   |    p24 > 0.09375\
|   |   |   |   |   |   |   |   |   |   |   |   |   |   |    p20 <= 0.04533\
|   |   |   |   |   |   |   |   |   |   |   |   |   |   |   |    p29 <= 0.13961: one  (2.0)\
|   |   |   |   |   |   |   |   |   |   |   |   |   |   |   |    p29 > 0.13961: zero  (6.0)\
|   |   |   |   |   |   |   |   |   |   |   |   |   |   |    p20 > 0.04533: one  (3.0)\
|   |   |   |   |   |   |   |   |   |   |   |    p16 > 0.121429\
|   |   |   |   |   |   |   |   |   |   |   |   |    p20 <= 0.038462: one  (2.0)\
|   |   |   |   |   |   |   |   |   |   |   |   |    p20 > 0.038462: zero  (9.0)\
|   |   |   |   |    p20 > 0.046703\
|   |   |   |   |   |    p20 <= 0.048077\
|   |   |   |   |   |   |    p4 <= 0.021978: one  (5.0)\
|   |   |   |   |   |   |    p4 > 0.021978\
|   |   |   |   |   |   |   |    p8 <= 0.047619: zero  (2.0)\
|   |   |   |   |   |   |   |    p8 > 0.047619: one  (6.0/1.0)\
|   |   |   |   |   |    p20 > 0.048077: zero  (12.0/1.0)\
|   |   |    p4 > 0.026099\
|   |   |   |    p16 <= 0.153571\
|   |   |   |   |    p17 <= 0.089286\
|   |   |   |   |   |    p12 <= 0.089286\
|   |   |   |   |   |   |    p13 <= 0.082792\
|   |   |   |   |   |   |   |    p17 <= 0.076786\
|   |   |   |   |   |   |   |   |    p8 <= 0.058036\
|   |   |   |   |   |   |   |   |   |    p33 <= 0.1\
|   |   |   |   |   |   |   |   |   |   |    p17 <= 0.060714: zero  (7.0)\
|   |   |   |   |   |   |   |   |   |   |    p17 > 0.060714\
|   |   |   |   |   |   |   |   |   |   |   |    p15 <= 0.801786: one  (22.0)\
|   |   |   |   |   |   |   |   |   |   |   |    p15 > 0.801786\
|   |   |   |   |   |   |   |   |   |   |   |   |    p17 <= 0.069643\
|   |   |   |   |   |   |   |   |   |   |   |   |   |    p13 <= 0.064935\
|   |   |   |   |   |   |   |   |   |   |   |   |   |   |    p4 <= 0.028846\
|   |   |   |   |   |   |   |   |   |   |   |   |   |   |   |    p12 <= 0.066558: one  (8.0)\
|   |   |   |   |   |   |   |   |   |   |   |   |   |   |   |    p12 > 0.066558: zero  (4.0/1.0)\
|   |   |   |   |   |   |   |   |   |   |   |   |   |   |    p4 > 0.028846: zero  (3.0)\
|   |   |   |   |   |   |   |   |   |   |   |   |   |    p13 > 0.064935: zero  (5.0)\
|   |   |   |   |   |   |   |   |   |   |   |   |    p17 > 0.069643\
|   |   |   |   |   |   |   |   |   |   |   |   |   |    p24 <= 0.081845\
|   |   |   |   |   |   |   |   |   |   |   |   |   |   |    p8 <= 0.056548: one  (23.0/1.0)\
|   |   |   |   |   |   |   |   |   |   |   |   |   |   |    p8 > 0.056548\
|   |   |   |   |   |   |   |   |   |   |   |   |   |   |   |    p23 <= 0.825893: zero  (2.0)\
|   |   |   |   |   |   |   |   |   |   |   |   |   |   |   |    p23 > 0.825893: one  (2.0)\
|   |   |   |   |   |   |   |   |   |   |   |   |   |    p24 > 0.081845: zero  (2.0)\
|   |   |   |   |   |   |   |   |   |    p33 > 0.1\
|   |   |   |   |   |   |   |   |   |   |    p24 <= 0.078869\
|   |   |   |   |   |   |   |   |   |   |   |    p4 <= 0.027473: zero  (40.0/1.0)\
|   |   |   |   |   |   |   |   |   |   |   |    p4 > 0.027473\
|   |   |   |   |   |   |   |   |   |   |   |   |    p14 <= 0.048701: zero  (14.0)\
|   |   |   |   |   |   |   |   |   |   |   |   |    p14 > 0.048701\
|   |   |   |   |   |   |   |   |   |   |   |   |   |    p3 <= 0.861264\
|   |   |   |   |   |   |   |   |   |   |   |   |   |   |    p17 <= 0.071429: zero  (9.0)\
|   |   |   |   |   |   |   |   |   |   |   |   |   |   |    p17 > 0.071429\
|   |   |   |   |   |   |   |   |   |   |   |   |   |   |   |    p34 <= 0.0375: zero  (4.0)\
|   |   |   |   |   |   |   |   |   |   |   |   |   |   |   |    p34 > 0.0375: one  (5.0/1.0)\
|   |   |   |   |   |   |   |   |   |   |   |   |   |    p3 > 0.861264: one  (3.0)\
|   |   |   |   |   |   |   |   |   |   |    p24 > 0.078869\
|   |   |   |   |   |   |   |   |   |   |   |    p30 <= 0.043831\
|   |   |   |   |   |   |   |   |   |   |   |   |    p10 <= 0.0625\
|   |   |   |   |   |   |   |   |   |   |   |   |   |    p17 <= 0.075\
|   |   |   |   |   |   |   |   |   |   |   |   |   |   |    p33 <= 0.119643: zero  (16.0/1.0)\
|   |   |   |   |   |   |   |   |   |   |   |   |   |   |    p33 > 0.119643: one  (2.0)\
|   |   |   |   |   |   |   |   |   |   |   |   |   |    p17 > 0.075: one  (2.0)\
|   |   |   |   |   |   |   |   |   |   |   |   |    p10 > 0.0625\
|   |   |   |   |   |   |   |   |   |   |   |   |   |    p33 <= 0.121429\
|   |   |   |   |   |   |   |   |   |   |   |   |   |   |    p12 <= 0.074675: one  (20.0)\
|   |   |   |   |   |   |   |   |   |   |   |   |   |   |    p12 > 0.074675\
|   |   |   |   |   |   |   |   |   |   |   |   |   |   |   |   p1 <= 0.890306: one  (4.0)\
|   |   |   |   |   |   |   |   |   |   |   |   |   |   |   |   p1 > 0.890306: zero  (2.0)\
|   |   |   |   |   |   |   |   |   |   |   |   |   |    p33 > 0.121429\
|   |   |   |   |   |   |   |   |   |   |   |   |   |   |    p4 <= 0.027473\
|   |   |   |   |   |   |   |   |   |   |   |   |   |   |   |    p16 <= 0.078571: one  (2.0)\
|   |   |   |   |   |   |   |   |   |   |   |   |   |   |   |    p16 > 0.078571\
|   |   |   |   |   |   |   |   |   |   |   |   |   |   |   |   |    p10 <= 0.090774: zero  (11.0)\
|   |   |   |   |   |   |   |   |   |   |   |   |   |   |   |   |    p10 > 0.090774: one  (3.0/1.0)\
|   |   |   |   |   |   |   |   |   |   |   |   |   |   |    p4 > 0.027473: one  (6.0/1.0)\
|   |   |   |   |   |   |   |   |   |   |   |    p30 > 0.043831: zero  (10.0)\
|   |   |   |   |   |   |   |   |    p8 > 0.058036\
|   |   |   |   |   |   |   |   |   |    p28 <= 0.121753\
|   |   |   |   |   |   |   |   |   |   |    p12 <= 0.081169\
|   |   |   |   |   |   |   |   |   |   |   |    p34 <= 0.025: zero  (42.0)\
|   |   |   |   |   |   |   |   |   |   |   |    p34 > 0.025\
|   |   |   |   |   |   |   |   |   |   |   |   |    p33 <= 0.098214: one  (3.0)\
|   |   |   |   |   |   |   |   |   |   |   |   |    p33 > 0.098214\
|   |   |   |   |   |   |   |   |   |   |   |   |   |    p24 <= 0.090774: zero  (20.0/1.0)\
|   |   |   |   |   |   |   |   |   |   |   |   |   |    p24 > 0.090774: one  (3.0/1.0)\
|   |   |   |   |   |   |   |   |   |   |    p12 > 0.081169: zero  (67.0)\
|   |   |   |   |   |   |   |   |   |    p28 > 0.121753\
|   |   |   |   |   |   |   |   |   |   |    p12 <= 0.084416: one  (5.0)\
|   |   |   |   |   |   |   |   |   |   |    p12 > 0.084416: zero  (3.0)\
|   |   |   |   |   |   |   |    p17 > 0.076786\
|   |   |   |   |   |   |   |   |    p16 <= 0.085714\
|   |   |   |   |   |   |   |   |   |    p13 <= 0.074675\
|   |   |   |   |   |   |   |   |   |   |    p9 <= 0.059524\
|   |   |   |   |   |   |   |   |   |   |   |    p16 <= 0.082143\
|   |   |   |   |   |   |   |   |   |   |   |   |    p20 <= 0.035714: zero  (3.0)\
|   |   |   |   |   |   |   |   |   |   |   |   |    p20 > 0.035714\
|   |   |   |   |   |   |   |   |   |   |   |   |   |    p8 <= 0.050595: zero  (3.0/1.0)\
|   |   |   |   |   |   |   |   |   |   |   |   |   |    p8 > 0.050595: one  (5.0)\
|   |   |   |   |   |   |   |   |   |   |   |    p16 > 0.082143: one  (11.0)\
|   |   |   |   |   |   |   |   |   |   |    p9 > 0.059524: zero  (2.0)\
|   |   |   |   |   |   |   |   |   |    p13 > 0.074675\
|   |   |   |   |   |   |   |   |   |   |    p17 <= 0.083929\
|   |   |   |   |   |   |   |   |   |   |   |    p20 <= 0.035714: zero  (11.0)\
|   |   |   |   |   |   |   |   |   |   |   |    p20 > 0.035714\
|   |   |   |   |   |   |   |   |   |   |   |   |    p4 <= 0.027473: one  (2.0)\
|   |   |   |   |   |   |   |   |   |   |   |   |    p4 > 0.027473\
|   |   |   |   |   |   |   |   |   |   |   |   |   |    p33 <= 0.091071\
|   |   |   |   |   |   |   |   |   |   |   |   |   |   |   p1 <= 0.91199: one  (2.0)\
|   |   |   |   |   |   |   |   |   |   |   |   |   |   |   p1 > 0.91199: zero  (2.0)\
|   |   |   |   |   |   |   |   |   |   |   |   |   |    p33 > 0.091071: zero  (11.0)\
|   |   |   |   |   |   |   |   |   |   |    p17 > 0.083929: zero  (17.0)\
|   |   |   |   |   |   |   |   |    p16 > 0.085714\
|   |   |   |   |   |   |   |   |   |    p12 <= 0.084416\
|   |   |   |   |   |   |   |   |   |   |    p13 <= 0.079545\
|   |   |   |   |   |   |   |   |   |   |   |    p9 <= 0.050595\
|   |   |   |   |   |   |   |   |   |   |   |   |    p8 <= 0.050595: one  (4.0)\
|   |   |   |   |   |   |   |   |   |   |   |   |    p8 > 0.050595: zero  (13.0/1.0)\
|   |   |   |   |   |   |   |   |   |   |   |    p9 > 0.050595\
|   |   |   |   |   |   |   |   |   |   |   |   |    p12 <= 0.082792\
|   |   |   |   |   |   |   |   |   |   |   |   |   |    p17 <= 0.082143\
|   |   |   |   |   |   |   |   |   |   |   |   |   |   |    p34 <= 0.030357\
|   |   |   |   |   |   |   |   |   |   |   |   |   |   |   |    p8 <= 0.061012\
|   |   |   |   |   |   |   |   |   |   |   |   |   |   |   |   |    p13 <= 0.077922: one  (33.0/5.0)\
|   |   |   |   |   |   |   |   |   |   |   |   |   |   |   |   |    p13 > 0.077922: zero  (5.0/1.0)\
|   |   |   |   |   |   |   |   |   |   |   |   |   |   |   |    p8 > 0.061012\
|   |   |   |   |   |   |   |   |   |   |   |   |   |   |   |   |    p13 <= 0.074675: zero  (6.0)\
|   |   |   |   |   |   |   |   |   |   |   |   |   |   |   |   |    p13 > 0.074675: one  (3.0/1.0)\
|   |   |   |   |   |   |   |   |   |   |   |   |   |   |    p34 > 0.030357\
|   |   |   |   |   |   |   |   |   |   |   |   |   |   |   |    p17 <= 0.080357\
|   |   |   |   |   |   |   |   |   |   |   |   |   |   |   |   |    p4 <= 0.027473: one  (12.0)\
|   |   |   |   |   |   |   |   |   |   |   |   |   |   |   |   |    p4 > 0.027473\
|   |   |   |   |   |   |   |   |   |   |   |   |   |   |   |   |   |    p9 <= 0.058036\
|   |   |   |   |   |   |   |   |   |   |   |   |   |   |   |   |   |   |    p12 <= 0.081169\
|   |   |   |   |   |   |   |   |   |   |   |   |   |   |   |   |   |   |   |    p7 <= 0.822917: one  (8.0)\
|   |   |   |   |   |   |   |   |   |   |   |   |   |   |   |   |   |   |   |    p7 > 0.822917: zero  (2.0)\
|   |   |   |   |   |   |   |   |   |   |   |   |   |   |   |   |   |   |    p12 > 0.081169: zero  (2.0)\
|   |   |   |   |   |   |   |   |   |   |   |   |   |   |   |   |   |    p9 > 0.058036: one  (11.0)\
|   |   |   |   |   |   |   |   |   |   |   |   |   |   |   |    p17 > 0.080357: one  (15.0)\
|   |   |   |   |   |   |   |   |   |   |   |   |   |    p17 > 0.082143\
|   |   |   |   |   |   |   |   |   |   |   |   |   |   |    p13 <= 0.069805\
|   |   |   |   |   |   |   |   |   |   |   |   |   |   |   |    p12 <= 0.081169: one  (6.0)\
|   |   |   |   |   |   |   |   |   |   |   |   |   |   |   |    p12 > 0.081169: zero  (4.0/1.0)\
|   |   |   |   |   |   |   |   |   |   |   |   |   |   |    p13 > 0.069805\
|   |   |   |   |   |   |   |   |   |   |   |   |   |   |   |    p16 <= 0.091071\
|   |   |   |   |   |   |   |   |   |   |   |   |   |   |   |   |    p33 <= 0.121429\
|   |   |   |   |   |   |   |   |   |   |   |   |   |   |   |   |   |    p3 <= 0.880495: one  (19.0)\
|   |   |   |   |   |   |   |   |   |   |   |   |   |   |   |   |   |    p3 > 0.880495: zero  (2.0)\
|   |   |   |   |   |   |   |   |   |   |   |   |   |   |   |   |    p33 > 0.121429: zero  (3.0)\
|   |   |   |   |   |   |   |   |   |   |   |   |   |   |   |    p16 > 0.091071: one  (138.0/2.0)\
|   |   |   |   |   |   |   |   |   |   |   |   |    p12 > 0.082792\
|   |   |   |   |   |   |   |   |   |   |   |   |   |    p15 <= 0.751786\
|   |   |   |   |   |   |   |   |   |   |   |   |   |   |    p33 <= 0.146429: one  (17.0)\
|   |   |   |   |   |   |   |   |   |   |   |   |   |   |    p33 > 0.146429: zero  (3.0/1.0)\
|   |   |   |   |   |   |   |   |   |   |   |   |   |    p15 > 0.751786\
|   |   |   |   |   |   |   |   |   |   |   |   |   |   |    p17 <= 0.085714: zero  (11.0)\
|   |   |   |   |   |   |   |   |   |   |   |   |   |   |    p17 > 0.085714: one  (3.0/1.0)\
|   |   |   |   |   |   |   |   |   |   |    p13 > 0.079545\
|   |   |   |   |   |   |   |   |   |   |   |    p12 <= 0.081169\
|   |   |   |   |   |   |   |   |   |   |   |   |    p24 <= 0.078869: zero  (15.0/1.0)\
|   |   |   |   |   |   |   |   |   |   |   |   |    p24 > 0.078869\
|   |   |   |   |   |   |   |   |   |   |   |   |   |    p9 <= 0.063988\
|   |   |   |   |   |   |   |   |   |   |   |   |   |   |    p17 <= 0.085714\
|   |   |   |   |   |   |   |   |   |   |   |   |   |   |   |    p10 <= 0.09375\
|   |   |   |   |   |   |   |   |   |   |   |   |   |   |   |   |    p4 <= 0.028846: zero  (5.0)\
|   |   |   |   |   |   |   |   |   |   |   |   |   |   |   |   |    p4 > 0.028846\
|   |   |   |   |   |   |   |   |   |   |   |   |   |   |   |   |   |    p16 <= 0.092857: one  (3.0)\
|   |   |   |   |   |   |   |   |   |   |   |   |   |   |   |   |   |    p16 > 0.092857: zero  (2.0)\
|   |   |   |   |   |   |   |   |   |   |   |   |   |   |   |    p10 > 0.09375: one  (4.0)\
|   |   |   |   |   |   |   |   |   |   |   |   |   |   |    p17 > 0.085714: one  (6.0)\
|   |   |   |   |   |   |   |   |   |   |   |   |   |    p9 > 0.063988: zero  (5.0)\
|   |   |   |   |   |   |   |   |   |   |   |    p12 > 0.081169\
|   |   |   |   |   |   |   |   |   |   |   |   |    p4 <= 0.035714: one  (20.0/1.0)\
|   |   |   |   |   |   |   |   |   |   |   |   |    p4 > 0.035714: zero  (3.0/1.0)\
|   |   |   |   |   |   |   |   |   |    p12 > 0.084416\
|   |   |   |   |   |   |   |   |   |   |    p13 <= 0.077922\
|   |   |   |   |   |   |   |   |   |   |   |    p28 <= 0.12987\
|   |   |   |   |   |   |   |   |   |   |   |   |    p33 <= 0.110714: one  (5.0/1.0)\
|   |   |   |   |   |   |   |   |   |   |   |   |    p33 > 0.110714\
|   |   |   |   |   |   |   |   |   |   |   |   |   |    p18 <= 0.0875: zero  (44.0)\
|   |   |   |   |   |   |   |   |   |   |   |   |   |    p18 > 0.0875\
|   |   |   |   |   |   |   |   |   |   |   |   |   |   |    p9 <= 0.056548: zero  (3.0)\
|   |   |   |   |   |   |   |   |   |   |   |   |   |   |    p9 > 0.056548: one  (4.0/1.0)\
|   |   |   |   |   |   |   |   |   |   |   |    p28 > 0.12987: one  (4.0)\
|   |   |   |   |   |   |   |   |   |   |    p13 > 0.077922\
|   |   |   |   |   |   |   |   |   |   |   |    p28 <= 0.121753\
|   |   |   |   |   |   |   |   |   |   |   |   |    p33 <= 0.096429: one  (9.0)\
|   |   |   |   |   |   |   |   |   |   |   |   |    p33 > 0.096429\
|   |   |   |   |   |   |   |   |   |   |   |   |   |    p17 <= 0.085714\
|   |   |   |   |   |   |   |   |   |   |   |   |   |   |    p4 <= 0.03022\
|   |   |   |   |   |   |   |   |   |   |   |   |   |   |   |    p20 <= 0.042582\
|   |   |   |   |   |   |   |   |   |   |   |   |   |   |   |   |    p4 <= 0.027473: zero  (5.0/1.0)\
|   |   |   |   |   |   |   |   |   |   |   |   |   |   |   |   |    p4 > 0.027473: one  (2.0)\
|   |   |   |   |   |   |   |   |   |   |   |   |   |   |   |    p20 > 0.042582: zero  (5.0)\
|   |   |   |   |   |   |   |   |   |   |   |   |   |   |    p4 > 0.03022: zero  (5.0)\
|   |   |   |   |   |   |   |   |   |   |   |   |   |    p17 > 0.085714\
|   |   |   |   |   |   |   |   |   |   |   |   |   |   |    p24 <= 0.074405: zero  (2.0)\
|   |   |   |   |   |   |   |   |   |   |   |   |   |   |    p24 > 0.074405\
|   |   |   |   |   |   |   |   |   |   |   |   |   |   |   |    p17 <= 0.0875\
|   |   |   |   |   |   |   |   |   |   |   |   |   |   |   |   |    p24 <= 0.08631: one  (4.0)\
|   |   |   |   |   |   |   |   |   |   |   |   |   |   |   |   |    p24 > 0.08631: zero  (2.0)\
|   |   |   |   |   |   |   |   |   |   |   |   |   |   |   |    p17 > 0.0875: one  (6.0)\
|   |   |   |   |   |   |   |   |   |   |   |    p28 > 0.121753: one  (29.0/1.0)\
|   |   |   |   |   |   |    p13 > 0.082792\
|   |   |   |   |   |   |   |    p12 <= 0.086039: zero  (83.0)\
|   |   |   |   |   |   |   |    p12 > 0.086039\
|   |   |   |   |   |   |   |   |    p13 <= 0.089286\
|   |   |   |   |   |   |   |   |   |    p17 <= 0.083929\
|   |   |   |   |   |   |   |   |   |   |    p6 <= 0.056319: one  (2.0)\
|   |   |   |   |   |   |   |   |   |   |    p6 > 0.056319: zero  (7.0)\
|   |   |   |   |   |   |   |   |   |    p17 > 0.083929\
|   |   |   |   |   |   |   |   |   |   |    p15 <= 0.773214: one  (15.0)\
|   |   |   |   |   |   |   |   |   |   |    p15 > 0.773214: zero  (2.0)\
|   |   |   |   |   |   |   |   |    p13 > 0.089286: zero  (12.0)\
|   |   |   |   |   |    p12 > 0.089286\
|   |   |   |   |   |   |    p28 <= 0.133117\
|   |   |   |   |   |   |   |    p17 <= 0.083929: zero  (232.0/1.0)\
|   |   |   |   |   |   |   |    p17 > 0.083929\
|   |   |   |   |   |   |   |   |    p12 <= 0.097403\
|   |   |   |   |   |   |   |   |   |    p33 <= 0.119643\
|   |   |   |   |   |   |   |   |   |   |    p23 <= 0.784226: one  (5.0)\
|   |   |   |   |   |   |   |   |   |   |    p23 > 0.784226\
|   |   |   |   |   |   |   |   |   |   |   |    p33 <= 0.103571\
|   |   |   |   |   |   |   |   |   |   |   |   |    p4 <= 0.037088: one  (2.0)\
|   |   |   |   |   |   |   |   |   |   |   |   |    p4 > 0.037088: zero  (3.0)\
|   |   |   |   |   |   |   |   |   |   |   |    p33 > 0.103571: zero  (17.0)\
|   |   |   |   |   |   |   |   |   |    p33 > 0.119643\
|   |   |   |   |   |   |   |   |   |   |    p28 <= 0.125: zero  (66.0)\
|   |   |   |   |   |   |   |   |   |   |    p28 > 0.125\
|   |   |   |   |   |   |   |   |   |   |   |    p33 <= 0.141071: one  (3.0)\
|   |   |   |   |   |   |   |   |   |   |   |    p33 > 0.141071: zero  (9.0/1.0)\
|   |   |   |   |   |   |   |   |    p12 > 0.097403: zero  (92.0)\
|   |   |   |   |   |   |    p28 > 0.133117\
|   |   |   |   |   |   |   |    p16 <= 0.123214\
|   |   |   |   |   |   |   |   |    p13 <= 0.089286: one  (11.0)\
|   |   |   |   |   |   |   |   |    p13 > 0.089286: zero  (3.0)\
|   |   |   |   |   |   |   |    p16 > 0.123214: zero  (9.0)\
|   |   |   |   |    p17 > 0.089286\
|   |   |   |   |   |    p33 <= 0.123214\
|   |   |   |   |   |   |    p16 <= 0.1\
|   |   |   |   |   |   |   |    p9 <= 0.065476\
|   |   |   |   |   |   |   |   |    p16 <= 0.092857\
|   |   |   |   |   |   |   |   |   |    p33 <= 0.114286\
|   |   |   |   |   |   |   |   |   |   |    p17 <= 0.096429\
|   |   |   |   |   |   |   |   |   |   |   |    p9 <= 0.0625: one  (7.0)\
|   |   |   |   |   |   |   |   |   |   |   |    p9 > 0.0625: zero  (3.0)\
|   |   |   |   |   |   |   |   |   |   |    p17 > 0.096429: zero  (4.0)\
|   |   |   |   |   |   |   |   |   |    p33 > 0.114286: zero  (11.0)\
|   |   |   |   |   |   |   |   |    p16 > 0.092857\
|   |   |   |   |   |   |   |   |   |    p22 <= 0.100275\
|   |   |   |   |   |   |   |   |   |   |    p9 <= 0.058036: one  (26.0)\
|   |   |   |   |   |   |   |   |   |   |    p9 > 0.058036\
|   |   |   |   |   |   |   |   |   |   |   |    p20 <= 0.035714\
|   |   |   |   |   |   |   |   |   |   |   |   |    p34 <= 0.033929: zero  (9.0/1.0)\
|   |   |   |   |   |   |   |   |   |   |   |   |    p34 > 0.033929: one  (3.0)\
|   |   |   |   |   |   |   |   |   |   |   |    p20 > 0.035714\
|   |   |   |   |   |   |   |   |   |   |   |   |    p8 <= 0.058036: zero  (3.0/1.0)\
|   |   |   |   |   |   |   |   |   |   |   |   |    p8 > 0.058036\
|   |   |   |   |   |   |   |   |   |   |   |   |   |    p4 <= 0.034341: one  (25.0/1.0)\
|   |   |   |   |   |   |   |   |   |   |   |   |   |    p4 > 0.034341: zero  (3.0/1.0)\
|   |   |   |   |   |   |   |   |   |    p22 > 0.100275: zero  (4.0)\
|   |   |   |   |   |   |   |    p9 > 0.065476\
|   |   |   |   |   |   |   |   |   p1 <= 0.909439: zero  (32.0/1.0)\
|   |   |   |   |   |   |   |   |   p1 > 0.909439: one  (3.0)\
|   |   |   |   |   |   |    p16 > 0.1\
|   |   |   |   |   |   |   |    p17 <= 0.132143\
|   |   |   |   |   |   |   |   |    p24 <= 0.074405\
|   |   |   |   |   |   |   |   |   |    p33 <= 0.110714\
|   |   |   |   |   |   |   |   |   |   |    p16 <= 0.132143\
|   |   |   |   |   |   |   |   |   |   |   |    p17 <= 0.126786\
|   |   |   |   |   |   |   |   |   |   |   |   |    p13 <= 0.087662\
|   |   |   |   |   |   |   |   |   |   |   |   |   |    p22 <= 0.056319: zero  (3.0/1.0)\
|   |   |   |   |   |   |   |   |   |   |   |   |   |    p22 > 0.056319: one  (31.0)\
|   |   |   |   |   |   |   |   |   |   |   |   |    p13 > 0.087662\
|   |   |   |   |   |   |   |   |   |   |   |   |   |    p16 <= 0.119643\
|   |   |   |   |   |   |   |   |   |   |   |   |   |   |    p17 <= 0.110714\
|   |   |   |   |   |   |   |   |   |   |   |   |   |   |   |    p13 <= 0.103896\
|   |   |   |   |   |   |   |   |   |   |   |   |   |   |   |   |    p20 <= 0.035714\
|   |   |   |   |   |   |   |   |   |   |   |   |   |   |   |   |   |    p16 <= 0.103571: zero  (2.0)\
|   |   |   |   |   |   |   |   |   |   |   |   |   |   |   |   |   |    p16 > 0.103571\
|   |   |   |   |   |   |   |   |   |   |   |   |   |   |   |   |   |   |    p28 <= 0.082792: zero  (2.0)\
|   |   |   |   |   |   |   |   |   |   |   |   |   |   |   |   |   |   |    p28 > 0.082792\
|   |   |   |   |   |   |   |   |   |   |   |   |   |   |   |   |   |   |   |    p20 <= 0.034341\
|   |   |   |   |   |   |   |   |   |   |   |   |   |   |   |   |   |   |   |   |    p6 <= 0.06456: zero  (2.0)\
|   |   |   |   |   |   |   |   |   |   |   |   |   |   |   |   |   |   |   |   |    p6 > 0.06456: one  (8.0/1.0)\
|   |   |   |   |   |   |   |   |   |   |   |   |   |   |   |   |   |   |   |    p20 > 0.034341: one  (9.0)\
|   |   |   |   |   |   |   |   |   |   |   |   |   |   |   |   |    p20 > 0.035714: one  (13.0)\
|   |   |   |   |   |   |   |   |   |   |   |   |   |   |   |    p13 > 0.103896: zero  (3.0)\
|   |   |   |   |   |   |   |   |   |   |   |   |   |   |    p17 > 0.110714: zero  (8.0)\
|   |   |   |   |   |   |   |   |   |   |   |   |   |    p16 > 0.119643\
|   |   |   |   |   |   |   |   |   |   |   |   |   |   |    p16 <= 0.125: one  (19.0)\
|   |   |   |   |   |   |   |   |   |   |   |   |   |   |    p16 > 0.125\
|   |   |   |   |   |   |   |   |   |   |   |   |   |   |   |    p20 <= 0.034341: one  (9.0/1.0)\
|   |   |   |   |   |   |   |   |   |   |   |   |   |   |   |    p20 > 0.034341: zero  (3.0/1.0)\
|   |   |   |   |   |   |   |   |   |   |   |    p17 > 0.126786: zero  (6.0/1.0)\
|   |   |   |   |   |   |   |   |   |   |    p16 > 0.132143: one  (15.0)\
|   |   |   |   |   |   |   |   |   |    p33 > 0.110714\
|   |   |   |   |   |   |   |   |   |   |    p8 <= 0.075893\
|   |   |   |   |   |   |   |   |   |   |   |    p20 <= 0.035714\
|   |   |   |   |   |   |   |   |   |   |   |   |    p10 <= 0.049107: zero  (6.0)\
|   |   |   |   |   |   |   |   |   |   |   |   |    p10 > 0.049107\
|   |   |   |   |   |   |   |   |   |   |   |   |   |    p13 <= 0.090909\
|   |   |   |   |   |   |   |   |   |   |   |   |   |   |    p16 <= 0.132143\
|   |   |   |   |   |   |   |   |   |   |   |   |   |   |   |    p32 <= 0.121429\
|   |   |   |   |   |   |   |   |   |   |   |   |   |   |   |   |    p12 <= 0.092532: one  (14.0/1.0)\
|   |   |   |   |   |   |   |   |   |   |   |   |   |   |   |   |    p12 > 0.092532: zero  (2.0)\
|   |   |   |   |   |   |   |   |   |   |   |   |   |   |   |    p32 > 0.121429: one  (19.0)\
|   |   |   |   |   |   |   |   |   |   |   |   |   |   |    p16 > 0.132143: zero  (2.0)\
|   |   |   |   |   |   |   |   |   |   |   |   |   |    p13 > 0.090909\
|   |   |   |   |   |   |   |   |   |   |   |   |   |   |    p12 <= 0.089286: zero  (6.0)\
|   |   |   |   |   |   |   |   |   |   |   |   |   |   |    p12 > 0.089286\
|   |   |   |   |   |   |   |   |   |   |   |   |   |   |   |    p24 <= 0.06994: zero  (6.0/1.0)\
|   |   |   |   |   |   |   |   |   |   |   |   |   |   |   |    p24 > 0.06994\
|   |   |   |   |   |   |   |   |   |   |   |   |   |   |   |   |    p14 <= 0.074675\
|   |   |   |   |   |   |   |   |   |   |   |   |   |   |   |   |   |    p32 <= 0.133929\
|   |   |   |   |   |   |   |   |   |   |   |   |   |   |   |   |   |   |    p33 <= 0.121429\
|   |   |   |   |   |   |   |   |   |   |   |   |   |   |   |   |   |   |   |    p17 <= 0.101786: zero  (2.0)\
|   |   |   |   |   |   |   |   |   |   |   |   |   |   |   |   |   |   |   |    p17 > 0.101786\
|   |   |   |   |   |   |   |   |   |   |   |   |   |   |   |   |   |   |   |   |    p20 <= 0.034341\
|   |   |   |   |   |   |   |   |   |   |   |   |   |   |   |   |   |   |   |   |   |    p29 <= 0.103896\
|   |   |   |   |   |   |   |   |   |   |   |   |   |   |   |   |   |   |   |   |   |   |    p31 <= 0.717857: zero  (4.0)\
|   |   |   |   |   |   |   |   |   |   |   |   |   |   |   |   |   |   |   |   |   |   |    p31 > 0.717857: one  (3.0)\
|   |   |   |   |   |   |   |   |   |   |   |   |   |   |   |   |   |   |   |   |   |    p29 > 0.103896: one  (8.0)\
|   |   |   |   |   |   |   |   |   |   |   |   |   |   |   |   |   |   |   |   |    p20 > 0.034341: one  (7.0)\
|   |   |   |   |   |   |   |   |   |   |   |   |   |   |   |   |   |   |    p33 > 0.121429: zero  (3.0)\
|   |   |   |   |   |   |   |   |   |   |   |   |   |   |   |   |   |    p32 > 0.133929: zero  (4.0)\
|   |   |   |   |   |   |   |   |   |   |   |   |   |   |   |   |    p14 > 0.074675: one  (16.0/1.0)\
|   |   |   |   |   |   |   |   |   |   |   |    p20 > 0.035714\
|   |   |   |   |   |   |   |   |   |   |   |   |    p24 <= 0.072917: zero  (5.0)\
|   |   |   |   |   |   |   |   |   |   |   |   |    p24 > 0.072917\
|   |   |   |   |   |   |   |   |   |   |   |   |   |    p14 <= 0.045455: zero  (6.0)\
|   |   |   |   |   |   |   |   |   |   |   |   |   |    p14 > 0.045455\
|   |   |   |   |   |   |   |   |   |   |   |   |   |   |    p32 <= 0.126786: one  (5.0)\
|   |   |   |   |   |   |   |   |   |   |   |   |   |   |    p32 > 0.126786: zero  (2.0)\
|   |   |   |   |   |   |   |   |   |   |    p8 > 0.075893: zero  (18.0/1.0)\
|   |   |   |   |   |   |   |   |    p24 > 0.074405\
|   |   |   |   |   |   |   |   |   |    p33 <= 0.114286\
|   |   |   |   |   |   |   |   |   |   |    p20 <= 0.035714\
|   |   |   |   |   |   |   |   |   |   |   |    p24 <= 0.075893: one  (29.0/2.0)\
|   |   |   |   |   |   |   |   |   |   |   |    p24 > 0.075893\
|   |   |   |   |   |   |   |   |   |   |   |   |    p18 <= 0.014286: zero  (2.0)\
|   |   |   |   |   |   |   |   |   |   |   |   |    p18 > 0.014286\
|   |   |   |   |   |   |   |   |   |   |   |   |   |    p34 <= 0.042857: one  (6.0)\
|   |   |   |   |   |   |   |   |   |   |   |   |   |    p34 > 0.042857\
|   |   |   |   |   |   |   |   |   |   |   |   |   |   |    p8 <= 0.072917: one  (5.0/1.0)\
|   |   |   |   |   |   |   |   |   |   |   |   |   |   |    p8 > 0.072917: zero  (2.0)\
|   |   |   |   |   |   |   |   |   |   |    p20 > 0.035714\
|   |   |   |   |   |   |   |   |   |   |   |    p20 <= 0.043956\
|   |   |   |   |   |   |   |   |   |   |   |   |    p8 <= 0.072917\
|   |   |   |   |   |   |   |   |   |   |   |   |   |    p33 <= 0.105357: one  (157.0)\
|   |   |   |   |   |   |   |   |   |   |   |   |   |    p33 > 0.105357\
|   |   |   |   |   |   |   |   |   |   |   |   |   |   |    p12 <= 0.094156\
|   |   |   |   |   |   |   |   |   |   |   |   |   |   |   |    p9 <= 0.068452\
|   |   |   |   |   |   |   |   |   |   |   |   |   |   |   |   |    p13 <= 0.081169\
|   |   |   |   |   |   |   |   |   |   |   |   |   |   |   |   |   |    p17 <= 0.1: one  (27.0/1.0)\
|   |   |   |   |   |   |   |   |   |   |   |   |   |   |   |   |   |    p17 > 0.1: zero  (2.0)\
|   |   |   |   |   |   |   |   |   |   |   |   |   |   |   |   |    p13 > 0.081169: one  (65.0)\
|   |   |   |   |   |   |   |   |   |   |   |   |   |   |   |    p9 > 0.068452\
|   |   |   |   |   |   |   |   |   |   |   |   |   |   |   |   |    p20 <= 0.038462: zero  (3.0)\
|   |   |   |   |   |   |   |   |   |   |   |   |   |   |   |   |    p20 > 0.038462: one  (2.0)\
|   |   |   |   |   |   |   |   |   |   |   |   |   |   |    p12 > 0.094156: one  (68.0)\
|   |   |   |   |   |   |   |   |   |   |   |   |    p8 > 0.072917\
|   |   |   |   |   |   |   |   |   |   |   |   |   |    p17 <= 0.098214\
|   |   |   |   |   |   |   |   |   |   |   |   |   |   |    p33 <= 0.107143: one  (3.0)\
|   |   |   |   |   |   |   |   |   |   |   |   |   |   |    p33 > 0.107143: zero  (4.0)\
|   |   |   |   |   |   |   |   |   |   |   |   |   |    p17 > 0.098214\
|   |   |   |   |   |   |   |   |   |   |   |   |   |   |    p12 <= 0.095779: zero  (2.0)\
|   |   |   |   |   |   |   |   |   |   |   |   |   |   |    p12 > 0.095779: one  (59.0/2.0)\
|   |   |   |   |   |   |   |   |   |   |   |    p20 > 0.043956\
|   |   |   |   |   |   |   |   |   |   |   |   |    p4 <= 0.034341\
|   |   |   |   |   |   |   |   |   |   |   |   |   |    p12 <= 0.103896\
|   |   |   |   |   |   |   |   |   |   |   |   |   |   |    p15 <= 0.771429\
|   |   |   |   |   |   |   |   |   |   |   |   |   |   |   |    p34 <= 0.05: one  (18.0)\
|   |   |   |   |   |   |   |   |   |   |   |   |   |   |   |    p34 > 0.05\
|   |   |   |   |   |   |   |   |   |   |   |   |   |   |   |   |    p29 <= 0.12013: zero  (2.0)\
|   |   |   |   |   |   |   |   |   |   |   |   |   |   |   |   |    p29 > 0.12013: one  (4.0)\
|   |   |   |   |   |   |   |   |   |   |   |   |   |   |    p15 > 0.771429: zero  (2.0)\
|   |   |   |   |   |   |   |   |   |   |   |   |   |    p12 > 0.103896: zero  (2.0)\
|   |   |   |   |   |   |   |   |   |   |   |   |    p4 > 0.034341: one  (13.0)\
|   |   |   |   |   |   |   |   |   |    p33 > 0.114286\
|   |   |   |   |   |   |   |   |   |   |    p28 <= 0.112013\
|   |   |   |   |   |   |   |   |   |   |   |    p8 <= 0.0625\
|   |   |   |   |   |   |   |   |   |   |   |   |    p34 <= 0.0375: one  (50.0)\
|   |   |   |   |   |   |   |   |   |   |   |   |    p34 > 0.0375\
|   |   |   |   |   |   |   |   |   |   |   |   |   |    p20 <= 0.038462\
|   |   |   |   |   |   |   |   |   |   |   |   |   |   |    p28 <= 0.108766\
|   |   |   |   |   |   |   |   |   |   |   |   |   |   |   |    p22 <= 0.103022\
|   |   |   |   |   |   |   |   |   |   |   |   |   |   |   |   |   p1 <= 0.880102: one  (2.0)\
|   |   |   |   |   |   |   |   |   |   |   |   |   |   |   |   |   p1 > 0.880102: zero  (2.0)\
|   |   |   |   |   |   |   |   |   |   |   |   |   |   |   |    p22 > 0.103022: zero  (3.0)\
|   |   |   |   |   |   |   |   |   |   |   |   |   |   |    p28 > 0.108766: one  (10.0)\
|   |   |   |   |   |   |   |   |   |   |   |   |   |    p20 > 0.038462: zero  (3.0)\
|   |   |   |   |   |   |   |   |   |   |   |    p8 > 0.0625\
|   |   |   |   |   |   |   |   |   |   |   |   |    p17 <= 0.105357\
|   |   |   |   |   |   |   |   |   |   |   |   |   |    p8 <= 0.066964\
|   |   |   |   |   |   |   |   |   |   |   |   |   |   |    p13 <= 0.094156\
|   |   |   |   |   |   |   |   |   |   |   |   |   |   |   |    p15 <= 0.767857\
|   |   |   |   |   |   |   |   |   |   |   |   |   |   |   |   |    p13 <= 0.086039\
|   |   |   |   |   |   |   |   |   |   |   |   |   |   |   |   |   |    p12 <= 0.089286: one  (4.0)\
|   |   |   |   |   |   |   |   |   |   |   |   |   |   |   |   |   |    p12 > 0.089286: zero  (6.0)\
|   |   |   |   |   |   |   |   |   |   |   |   |   |   |   |   |    p13 > 0.086039: one  (11.0)\
|   |   |   |   |   |   |   |   |   |   |   |   |   |   |   |    p15 > 0.767857: zero  (2.0)\
|   |   |   |   |   |   |   |   |   |   |   |   |   |   |    p13 > 0.094156: zero  (2.0)\
|   |   |   |   |   |   |   |   |   |   |   |   |   |    p8 > 0.066964\
|   |   |   |   |   |   |   |   |   |   |   |   |   |   |    p15 <= 0.746429\
|   |   |   |   |   |   |   |   |   |   |   |   |   |   |   |    p32 <= 0.121429: zero  (4.0)\
|   |   |   |   |   |   |   |   |   |   |   |   |   |   |   |    p32 > 0.121429\
|   |   |   |   |   |   |   |   |   |   |   |   |   |   |   |   |    p23 <= 0.775298\
|   |   |   |   |   |   |   |   |   |   |   |   |   |   |   |   |   |    p7 <= 0.767857: one  (2.0)\
|   |   |   |   |   |   |   |   |   |   |   |   |   |   |   |   |   |    p7 > 0.767857: zero  (4.0)\
|   |   |   |   |   |   |   |   |   |   |   |   |   |   |   |   |    p23 > 0.775298: one  (6.0)\
|   |   |   |   |   |   |   |   |   |   |   |   |   |   |    p15 > 0.746429\
|   |   |   |   |   |   |   |   |   |   |   |   |   |   |   |    p32 <= 0.114286: one  (2.0)\
|   |   |   |   |   |   |   |   |   |   |   |   |   |   |   |    p32 > 0.114286\
|   |   |   |   |   |   |   |   |   |   |   |   |   |   |   |   |    p17 <= 0.103571: zero  (21.0)\
|   |   |   |   |   |   |   |   |   |   |   |   |   |   |   |   |    p17 > 0.103571\
|   |   |   |   |   |   |   |   |   |   |   |   |   |   |   |   |   |    p32 <= 0.119643: one  (2.0)\
|   |   |   |   |   |   |   |   |   |   |   |   |   |   |   |   |   |    p32 > 0.119643: zero  (3.0)\
|   |   |   |   |   |   |   |   |   |   |   |   |    p17 > 0.105357\
|   |   |   |   |   |   |   |   |   |   |   |   |   |    p16 <= 0.1125\
|   |   |   |   |   |   |   |   |   |   |   |   |   |   |    p7 <= 0.796131: zero  (5.0)\
|   |   |   |   |   |   |   |   |   |   |   |   |   |   |    p7 > 0.796131: one  (3.0)\
|   |   |   |   |   |   |   |   |   |   |   |   |   |    p16 > 0.1125\
|   |   |   |   |   |   |   |   |   |   |   |   |   |   |    p9 <= 0.077381: one  (43.0/3.0)\
|   |   |   |   |   |   |   |   |   |   |   |   |   |   |    p9 > 0.077381\
|   |   |   |   |   |   |   |   |   |   |   |   |   |   |   |    p4 <= 0.037088: zero  (2.0)\
|   |   |   |   |   |   |   |   |   |   |   |   |   |   |   |    p4 > 0.037088: one  (2.0)\
|   |   |   |   |   |   |   |   |   |   |    p28 > 0.112013\
|   |   |   |   |   |   |   |   |   |   |   |    p25 <= 0.075893\
|   |   |   |   |   |   |   |   |   |   |   |   |    p3 <= 0.822802: one  (8.0/1.0)\
|   |   |   |   |   |   |   |   |   |   |   |   |    p3 > 0.822802: zero  (3.0)\
|   |   |   |   |   |   |   |   |   |   |   |    p25 > 0.075893\
|   |   |   |   |   |   |   |   |   |   |   |   |    p9 <= 0.072917: one  (160.0/6.0)\
|   |   |   |   |   |   |   |   |   |   |   |   |    p9 > 0.072917\
|   |   |   |   |   |   |   |   |   |   |   |   |   |    p16 <= 0.123214: zero  (4.0/1.0)\
|   |   |   |   |   |   |   |   |   |   |   |   |   |    p16 > 0.123214\
|   |   |   |   |   |   |   |   |   |   |   |   |   |   |    p24 <= 0.081845\
|   |   |   |   |   |   |   |   |   |   |   |   |   |   |   |    p32 <= 0.144643: one  (11.0/1.0)\
|   |   |   |   |   |   |   |   |   |   |   |   |   |   |   |    p32 > 0.144643: zero  (3.0)\
|   |   |   |   |   |   |   |   |   |   |   |   |   |   |    p24 > 0.081845: one  (26.0)\
|   |   |   |   |   |   |   |    p17 > 0.132143\
|   |   |   |   |   |   |   |   |    p16 <= 0.139286: zero  (22.0/1.0)\
|   |   |   |   |   |   |   |   |    p16 > 0.139286: one  (14.0/1.0)\
|   |   |   |   |   |    p33 > 0.123214\
|   |   |   |   |   |   |    p25 <= 0.075893\
|   |   |   |   |   |   |   |    p16 <= 0.105357\
|   |   |   |   |   |   |   |   |    p30 <= 0.074675: zero  (47.0)\
|   |   |   |   |   |   |   |   |    p30 > 0.074675\
|   |   |   |   |   |   |   |   |   |    p33 <= 0.132143: one  (3.0/1.0)\
|   |   |   |   |   |   |   |   |   |    p33 > 0.132143: zero  (3.0)\
|   |   |   |   |   |   |   |    p16 > 0.105357\
|   |   |   |   |   |   |   |   |    p8 <= 0.058036\
|   |   |   |   |   |   |   |   |   |    p9 <= 0.058036\
|   |   |   |   |   |   |   |   |   |   |    p9 <= 0.053571: zero  (2.0)\
|   |   |   |   |   |   |   |   |   |   |    p9 > 0.053571\
|   |   |   |   |   |   |   |   |   |   |   |    p24 <= 0.071429\
|   |   |   |   |   |   |   |   |   |   |   |   |    p4 <= 0.028846: zero  (2.0)\
|   |   |   |   |   |   |   |   |   |   |   |   |    p4 > 0.028846: one  (2.0)\
|   |   |   |   |   |   |   |   |   |   |   |    p24 > 0.071429: one  (17.0)\
|   |   |   |   |   |   |   |   |   |    p9 > 0.058036: zero  (4.0)\
|   |   |   |   |   |   |   |   |    p8 > 0.058036\
|   |   |   |   |   |   |   |   |   |    p17 <= 0.107143\
|   |   |   |   |   |   |   |   |   |   |    p12 <= 0.092532\
|   |   |   |   |   |   |   |   |   |   |   |    p9 <= 0.059524: zero  (8.0)\
|   |   |   |   |   |   |   |   |   |   |   |    p9 > 0.059524\
|   |   |   |   |   |   |   |   |   |   |   |   |    p4 <= 0.031593\
|   |   |   |   |   |   |   |   |   |   |   |   |   |    p13 <= 0.090909: one  (9.0)\
|   |   |   |   |   |   |   |   |   |   |   |   |   |    p13 > 0.090909\
|   |   |   |   |   |   |   |   |   |   |   |   |   |   |    p12 <= 0.089286: one  (2.0)\
|   |   |   |   |   |   |   |   |   |   |   |   |   |   |    p12 > 0.089286: zero  (2.0)\
|   |   |   |   |   |   |   |   |   |   |   |   |    p4 > 0.031593: zero  (4.0)\
|   |   |   |   |   |   |   |   |   |   |    p12 > 0.092532\
|   |   |   |   |   |   |   |   |   |   |   |    p17 <= 0.1: zero  (81.0)\
|   |   |   |   |   |   |   |   |   |   |   |    p17 > 0.1\
|   |   |   |   |   |   |   |   |   |   |   |   |    p4 <= 0.032967\
|   |   |   |   |   |   |   |   |   |   |   |   |   |    p33 <= 0.128571: one  (4.0/1.0)\
|   |   |   |   |   |   |   |   |   |   |   |   |   |    p33 > 0.128571\
|   |   |   |   |   |   |   |   |   |   |   |   |   |   |    p28 <= 0.116883: zero  (21.0)\
|   |   |   |   |   |   |   |   |   |   |   |   |   |   |    p28 > 0.116883\
|   |   |   |   |   |   |   |   |   |   |   |   |   |   |   |    p4 <= 0.03022: one  (2.0)\
|   |   |   |   |   |   |   |   |   |   |   |   |   |   |   |    p4 > 0.03022: zero  (7.0/1.0)\
|   |   |   |   |   |   |   |   |   |   |   |   |    p4 > 0.032967: zero  (37.0)\
|   |   |   |   |   |   |   |   |   |    p17 > 0.107143\
|   |   |   |   |   |   |   |   |   |   |    p33 <= 0.144643\
|   |   |   |   |   |   |   |   |   |   |   |    p18 <= 0.025: zero  (18.0/1.0)\
|   |   |   |   |   |   |   |   |   |   |   |    p18 > 0.025\
|   |   |   |   |   |   |   |   |   |   |   |   |    p24 <= 0.071429\
|   |   |   |   |   |   |   |   |   |   |   |   |   |    p10 <= 0.06994: one  (3.0)\
|   |   |   |   |   |   |   |   |   |   |   |   |   |    p10 > 0.06994\
|   |   |   |   |   |   |   |   |   |   |   |   |   |   |    p13 <= 0.105519\
|   |   |   |   |   |   |   |   |   |   |   |   |   |   |   |    p4 <= 0.035714\
|   |   |   |   |   |   |   |   |   |   |   |   |   |   |   |   |    p8 <= 0.066964: one  (3.0/1.0)\
|   |   |   |   |   |   |   |   |   |   |   |   |   |   |   |   |    p8 > 0.066964: zero  (3.0)\
|   |   |   |   |   |   |   |   |   |   |   |   |   |   |   |    p4 > 0.035714: one  (2.0)\
|   |   |   |   |   |   |   |   |   |   |   |   |   |   |    p13 > 0.105519: zero  (10.0)\
|   |   |   |   |   |   |   |   |   |   |   |   |    p24 > 0.071429\
|   |   |   |   |   |   |   |   |   |   |   |   |   |    p16 <= 0.116071\
|   |   |   |   |   |   |   |   |   |   |   |   |   |   |    p13 <= 0.095779: one  (2.0)\
|   |   |   |   |   |   |   |   |   |   |   |   |   |   |    p13 > 0.095779\
|   |   |   |   |   |   |   |   |   |   |   |   |   |   |   |    p17 <= 0.108929: one  (2.0)\
|   |   |   |   |   |   |   |   |   |   |   |   |   |   |   |    p17 > 0.108929: zero  (15.0/1.0)\
|   |   |   |   |   |   |   |   |   |   |   |   |   |    p16 > 0.116071\
|   |   |   |   |   |   |   |   |   |   |   |   |   |   |    p33 <= 0.1375\
|   |   |   |   |   |   |   |   |   |   |   |   |   |   |   |    p13 <= 0.12013\
|   |   |   |   |   |   |   |   |   |   |   |   |   |   |   |   |    p4 <= 0.038462\
|   |   |   |   |   |   |   |   |   |   |   |   |   |   |   |   |   |    p4 <= 0.035714\
|   |   |   |   |   |   |   |   |   |   |   |   |   |   |   |   |   |   |    p13 <= 0.087662: zero  (3.0)\
|   |   |   |   |   |   |   |   |   |   |   |   |   |   |   |   |   |   |    p13 > 0.087662\
|   |   |   |   |   |   |   |   |   |   |   |   |   |   |   |   |   |   |   |    p17 <= 0.142857\
|   |   |   |   |   |   |   |   |   |   |   |   |   |   |   |   |   |   |   |   |    p4 <= 0.03022: one  (8.0)\
|   |   |   |   |   |   |   |   |   |   |   |   |   |   |   |   |   |   |   |   |    p4 > 0.03022\
|   |   |   |   |   |   |   |   |   |   |   |   |   |   |   |   |   |   |   |   |   |    p20 <= 0.034341: one  (11.0/1.0)\
|   |   |   |   |   |   |   |   |   |   |   |   |   |   |   |   |   |   |   |   |   |    p20 > 0.034341\
|   |   |   |   |   |   |   |   |   |   |   |   |   |   |   |   |   |   |   |   |   |   |    p20 <= 0.035714\
|   |   |   |   |   |   |   |   |   |   |   |   |   |   |   |   |   |   |   |   |   |   |   |    p8 <= 0.063988: zero  (2.0)\
|   |   |   |   |   |   |   |   |   |   |   |   |   |   |   |   |   |   |   |   |   |   |   |    p8 > 0.063988\
|   |   |   |   |   |   |   |   |   |   |   |   |   |   |   |   |   |   |   |   |   |   |   |   |    p10 <= 0.144345\
|   |   |   |   |   |   |   |   |   |   |   |   |   |   |   |   |   |   |   |   |   |   |   |   |   |    p4 <= 0.032967: one  (10.0)\
|   |   |   |   |   |   |   |   |   |   |   |   |   |   |   |   |   |   |   |   |   |   |   |   |   |    p4 > 0.032967\
|   |   |   |   |   |   |   |   |   |   |   |   |   |   |   |   |   |   |   |   |   |   |   |   |   |   |    p10 <= 0.114583: zero  (4.0/1.0)\
|   |   |   |   |   |   |   |   |   |   |   |   |   |   |   |   |   |   |   |   |   |   |   |   |   |   |    p10 > 0.114583: one  (4.0)\
|   |   |   |   |   |   |   |   |   |   |   |   |   |   |   |   |   |   |   |   |   |   |   |   |    p10 > 0.144345: zero  (2.0)\
|   |   |   |   |   |   |   |   |   |   |   |   |   |   |   |   |   |   |   |   |   |   |    p20 > 0.035714: one  (8.0/1.0)\
|   |   |   |   |   |   |   |   |   |   |   |   |   |   |   |   |   |   |   |    p17 > 0.142857: zero  (3.0)\
|   |   |   |   |   |   |   |   |   |   |   |   |   |   |   |   |   |    p4 > 0.035714: one  (17.0/1.0)\
|   |   |   |   |   |   |   |   |   |   |   |   |   |   |   |   |    p4 > 0.038462: zero  (4.0/1.0)\
|   |   |   |   |   |   |   |   |   |   |   |   |   |   |   |    p13 > 0.12013: zero  (5.0/1.0)\
|   |   |   |   |   |   |   |   |   |   |   |   |   |   |    p33 > 0.1375\
|   |   |   |   |   |   |   |   |   |   |   |   |   |   |   |    p32 <= 0.157143\
|   |   |   |   |   |   |   |   |   |   |   |   |   |   |   |   |    p7 <= 0.745536: zero  (8.0)\
|   |   |   |   |   |   |   |   |   |   |   |   |   |   |   |   |    p7 > 0.745536\
|   |   |   |   |   |   |   |   |   |   |   |   |   |   |   |   |   |    p15 <= 0.691071\
|   |   |   |   |   |   |   |   |   |   |   |   |   |   |   |   |   |   |    p28 <= 0.113636: one  (4.0)\
|   |   |   |   |   |   |   |   |   |   |   |   |   |   |   |   |   |   |    p28 > 0.113636\
|   |   |   |   |   |   |   |   |   |   |   |   |   |   |   |   |   |   |   |    p24 <= 0.074405: zero  (6.0/1.0)\
|   |   |   |   |   |   |   |   |   |   |   |   |   |   |   |   |   |   |   |    p24 > 0.074405\
|   |   |   |   |   |   |   |   |   |   |   |   |   |   |   |   |   |   |   |   |    p3 <= 0.811813: one  (4.0)\
|   |   |   |   |   |   |   |   |   |   |   |   |   |   |   |   |   |   |   |   |    p3 > 0.811813\
|   |   |   |   |   |   |   |   |   |   |   |   |   |   |   |   |   |   |   |   |   |   p1 <= 0.860969: zero  (2.0)\
|   |   |   |   |   |   |   |   |   |   |   |   |   |   |   |   |   |   |   |   |   |   p1 > 0.860969: one  (2.0)\
|   |   |   |   |   |   |   |   |   |   |   |   |   |   |   |   |   |    p15 > 0.691071: zero  (9.0/1.0)\
|   |   |   |   |   |   |   |   |   |   |   |   |   |   |   |    p32 > 0.157143: one  (6.0)\
|   |   |   |   |   |   |   |   |   |   |    p33 > 0.144643\
|   |   |   |   |   |   |   |   |   |   |   |    p17 <= 0.121429\
